{"learner":{"attributes":{"scikit_learn":"{\"_estimator_type\": \"regressor\"}"},"feature_names":["tinggi_lapisan_batas_m","ozon_kolom_kg_m2","uap_air_kolom_kg_m2","tutupan_awan_01","suhu_2m_C","titik_embun_C","tekanan_hPa","curah_hujan_mm","kecepatan_angin_kmh","arah_angin_derajat","kelembapan_persen","is_dry_season","hour_sin","hour_cos","month_sin","month_cos","dow_sin","dow_cos","pm25_lag_1h","pm25_lag_24h"],"feature_types":["float","float","float","float","float","float","float","float","float","float","float","float","float","float","float","float","float","float","float","float"],"gradient_booster":{"model":{"gbtree_model_param":{"num_parallel_tree":"1","num_trees":"100"},"iteration_indptr":[0,1,2,3,4,5,6,7,8,9,10,11,12,13,14,15,16,17,18,19,20,21,22,23,24,25,26,27,28,29,30,31,32,33,34,35,36,37,38,39,40,41,42,43,44,45,46,47,48,49,50,51,52,53,54,55,56,57,58,59,60,61,62,63,64,65,66,67,68,69,70,71,72,73,74,75,76,77,78,79,80,81,82,83,84,85,86,87,88,89,90,91,92,93,94,95,96,97,98,99,100],"tree_info":[0,0,0,0,0,0,0,0,0,0,0,0,0,0,0,0,0,0,0,0,0,0,0,0,0,0,0,0,0,0,0,0,0,0,0,0,0,0,0,0,0,0,0,0,0,0,0,0,0,0,0,0,0,0,0,0,0,0,0,0,0,0,0,0,0,0,0,0,0,0,0,0,0,0,0,0,0,0,0,0,0,0,0,0,0,0,0,0,0,0,0,0,0,0,0,0,0,0,0,0],"trees":[{"base_weights":[-2.8971925E-9,-8.8067144E-2,3.3710945E-1,-1.4935711E-1,4.259652E-2,2.0630173E-1,4.7772226E-1,-1.838761E-1,-9.358723E-2,3.2731567E-2,2.3723358E-1,1.8004695E-1,3.5261405E-1,3.7249196E-1,5.513446E-1,-1.0294447E-2,-8.300646E-3,-5.8433744E-3,-3.552808E-3,-5.2398717E-4,3.511243E-3,6.964764E-3,1.921933E-2,5.647205E-3,1.0657186E-2,1.8468697E-3,1.9272719E-2,1.3080666E-2,2.0985678E-2,2.1915292E-2,2.9632507E-2],"categories":[],"categories_nodes":[],"categories_segments":[],"categories_sizes":[],"default_left":[0,0,0,0,0,0,0,0,0,0,0,0,0,0,0,0,0,0,0,0,0,0,0,0,0,0,0,0,0,0,0],"id":0,"left_children":[1,3,5,7,9,11,13,15,17,19,21,23,25,27,29,-1,-1,-1,-1,-1,-1,-1,-1,-1,-1,-1,-1,-1,-1,-1,-1],"loss_changes":[1.9235028E2,4.114536E1,2.458519E1,6.7149353E0,3.1430957E0,2.613968E0,4.7993774E0,8.147812E-1,6.9404125E-1,2.533006E0,1.0849977E0,1.2929134E0,1.0742884E0,1.298645E0,1.5051575E0,0E0,0E0,0E0,0E0,0E0,0E0,0E0,0E0,0E0,0E0,0E0,0E0,0E0,0E0,0E0,0E0],"parents":[2147483647,0,0,1,1,2,2,3,3,4,4,5,5,6,6,7,7,8,8,9,9,10,10,11,11,12,12,13,13,14,14],"right_children":[2,4,6,8,10,12,14,16,18,20,22,24,26,28,30,-1,-1,-1,-1,-1,-1,-1,-1,-1,-1,-1,-1,-1,-1,-1,-1],"split_conditions":[3.6997318E-1,1.7426273E-1,5.9517425E-1,7.506702E-2,1E0,9.829629E-1,7.8016084E-1,2.6809651E-2,1.17962465E-1,2.546917E-1,4.7184986E-1,3.7059048E-1,7.7747986E-2,3.7059048E-1,3.7059048E-1,-1.0294447E-2,-8.300646E-3,-5.8433744E-3,-3.552808E-3,-5.2398717E-4,3.511243E-3,6.964764E-3,1.921933E-2,5.647205E-3,1.0657186E-2,1.8468697E-3,1.9272719E-2,1.3080666E-2,2.0985678E-2,2.1915292E-2,2.9632507E-2],"split_indices":[18,18,18,18,12,12,18,18,18,18,19,13,19,13,13,0,0,0,0,0,0,0,0,0,0,0,0,0,0,0,0],"split_type":[0,0,0,0,0,0,0,0,0,0,0,0,0,0,0,0,0,0,0,0,0,0,0,0,0,0,0,0,0,0,0],"sum_hessian":[6.477E3,5.136E3,1.341E3,3.496E3,1.64E3,6.96E2,6.45E2,2.158E3,1.338E3,1.562E3,7.8E1,5.92E2,1.04E2,2.68E2,3.77E2,9.62E2,1.196E3,6.56E2,6.82E2,7.26E2,8.36E2,4.8E1,3E1,1.97E2,3.95E2,1E1,9.4E1,8.2E1,1.86E2,1.04E2,2.73E2],"tree_param":{"num_deleted":"0","num_feature":"20","num_nodes":"31","size_leaf_vector":"1"}},{"base_weights":[1.917265E-5,-8.127519E-2,3.2989275E-1,-1.4189725E-1,4.3329183E-2,2.483996E-1,5.2391374E-1,-1.746909E-1,-8.8914886E-2,-1.7213224E-2,7.3588885E-2,1.8443939E-1,3.389584E-1,3.561184E-1,5.507805E-1,-9.780258E-3,-7.885961E-3,-5.5516507E-3,-3.3754276E-3,-1.9803366E-3,9.063419E-4,3.1018623E-3,1.2987523E-2,5.159277E-3,1.0971119E-2,1.5376151E-2,2.3416907E-2,2.0586347E-2,3.235361E-3,1.9882357E-2,2.8929701E-2],"categories":[],"categories_nodes":[],"categories_segments":[],"categories_sizes":[],"default_left":[0,0,0,0,0,0,0,0,0,0,0,0,0,0,0,0,0,0,0,0,0,0,0,0,0,0,0,0,0,0,0],"id":1,"left_children":[1,3,5,7,9,11,13,15,17,19,21,23,25,27,29,-1,-1,-1,-1,-1,-1,-1,-1,-1,-1,-1,-1,-1,-1,-1,-1],"loss_changes":[1.7374644E2,3.9270664E1,2.0124237E1,6.060463E0,3.1193218E0,5.1735954E0,1.5079346E0,7.3548126E-1,6.2647724E-1,4.502263E-1,2.4246707E0,1.4895687E0,1.3730049E0,8.646307E-1,1.1498947E0,0E0,0E0,0E0,0E0,0E0,0E0,0E0,0E0,0E0,0E0,0E0,0E0,0E0,0E0,0E0,0E0],"parents":[2147483647,0,0,1,1,2,2,3,3,4,4,5,5,6,6,7,7,8,8,9,9,10,10,11,11,12,12,13,13,14,14],"right_children":[2,4,6,8,10,12,14,16,18,20,22,24,26,28,30,-1,-1,-1,-1,-1,-1,-1,-1,-1,-1,-1,-1,-1,-1,-1,-1],"split_conditions":[3.8127154E-1,1.7426273E-1,7.8016084E-1,7.506702E-2,2.30563E-1,5.4959786E-1,1.2516756E-1,2.6809651E-2,1.17962465E-1,2.3324397E-1,1E0,3.7059048E-1,9.829629E-1,9.282032E-1,2.9806107E-1,-9.780258E-3,-7.885961E-3,-5.5516507E-3,-3.3754276E-3,-1.9803366E-3,9.063419E-4,3.1018623E-3,1.2987523E-2,5.159277E-3,1.0971119E-2,1.5376151E-2,2.3416907E-2,2.0586347E-2,3.235361E-3,1.9882357E-2,2.8929701E-2],"split_indices":[18,18,18,18,18,18,19,18,18,19,12,13,12,14,6,0,0,0,0,0,0,0,0,0,0,0,0,0,0,0,0],"split_type":[0,0,0,0,0,0,0,0,0,0,0,0,0,0,0,0,0,0,0,0,0,0,0,0,0,0,0,0,0,0,0],"sum_hessian":[6.477E3,5.197E3,1.28E3,3.496E3,1.701E3,9.03E2,3.77E2,2.158E3,1.338E3,5.67E2,1.134E3,5.31E2,3.72E2,5.4E1,3.23E2,9.62E2,1.196E3,6.56E2,6.82E2,3.47E2,2.2E2,1.069E3,6.5E1,1.61E2,3.7E2,3.02E2,7E1,4.5E1,9E0,5.2E1,2.71E2],"tree_param":{"num_deleted":"0","num_feature":"20","num_nodes":"31","size_leaf_vector":"1"}},{"base_weights":[3.6117846E-5,-7.951119E-2,3.0453274E-1,-1.3481E-1,3.8380004E-2,1.8146558E-1,4.269636E-1,-1.6596454E-1,-8.447581E-2,2.9397093E-2,2.1561939E-1,1.6766798E-1,4.0689197E-1,3.3460844E-1,4.9791017E-1,-9.291753E-3,-7.491992E-3,-5.274491E-3,-3.2069036E-3,-2.848277E-4,3.421731E-3,6.134352E-3,1.7777849E-2,4.7720545E-3,9.953055E-3,1.7501127E-3,2.188841E-2,1.2027304E-2,1.8608129E-2,2.2848805E-2,3.0510081E-2],"categories":[],"categories_nodes":[],"categories_segments":[],"categories_sizes":[],"default_left":[0,0,0,0,0,0,0,0,0,0,0,0,0,0,0,0,0,0,0,0,0,0,0,0,0,0,0,0,0,0,0],"id":2,"left_children":[1,3,5,7,9,11,13,15,17,19,21,23,25,27,29,-1,-1,-1,-1,-1,-1,-1,-1,-1,-1,-1,-1,-1,-1,-1,-1],"loss_changes":[1.5693358E2,3.3494526E1,2.014273E1,5.4697647E0,2.60634E0,2.018814E0,4.236534E0,6.639137E-1,5.654917E-1,2.1416516E0,9.837513E-1,1.4185505E0,4.2101383E-1,9.5254517E-1,1.4586487E0,0E0,0E0,0E0,0E0,0E0,0E0,0E0,0E0,0E0,0E0,0E0,0E0,0E0,0E0,0E0,0E0],"parents":[2147483647,0,0,1,1,2,2,3,3,4,4,5,5,6,6,7,7,8,8,9,9,10,10,11,11,12,12,13,13,14,14],"right_children":[2,4,6,8,10,12,14,16,18,20,22,24,26,28,30,-1,-1,-1,-1,-1,-1,-1,-1,-1,-1,-1,-1,-1,-1,-1,-1],"split_conditions":[3.6997318E-1,1.7426273E-1,5.8176947E-1,7.506702E-2,1E0,1E0,7.8016084E-1,2.6809651E-2,1.17962465E-1,2.6541555E-1,4.7184986E-1,3.7059048E-1,1.9615242E-1,3.7059048E-1,7.5603217E-1,-9.291753E-3,-7.491992E-3,-5.274491E-3,-3.2069036E-3,-2.848277E-4,3.421731E-3,6.134352E-3,1.7777849E-2,4.7720545E-3,9.953055E-3,1.7501127E-3,2.188841E-2,1.2027304E-2,1.8608129E-2,2.2848805E-2,3.0510081E-2],"split_indices":[18,18,18,18,12,12,18,18,18,18,19,13,14,13,19,0,0,0,0,0,0,0,0,0,0,0,0,0,0,0,0],"split_type":[0,0,0,0,0,0,0,0,0,0,0,0,0,0,0,0,0,0,0,0,0,0,0,0,0,0,0,0,0,0,0],"sum_hessian":[6.477E3,5.136E3,1.341E3,3.496E3,1.64E3,6.7E2,6.71E2,2.158E3,1.338E3,1.562E3,7.8E1,6.33E2,3.7E1,2.94E2,3.77E2,9.62E2,1.196E3,6.56E2,6.82E2,8.23E2,7.39E2,4.8E1,3E1,1.93E2,4.4E2,3E0,3.4E1,8.6E1,2.08E2,2.8E2,9.7E1],"tree_param":{"num_deleted":"0","num_feature":"20","num_nodes":"31","size_leaf_vector":"1"}},{"base_weights":[5.3475567E-5,-7.3392145E-2,2.980787E-1,-1.2807672E-1,3.9008167E-2,1.9116658E-1,4.1910532E-1,-1.5767409E-1,-8.025835E-2,-1.6373953E-2,6.668926E-2,1.658646E-1,3.2265434E-1,3.256067E-1,4.7315583E-1,-8.827648E-3,-7.117705E-3,-4.410812E-3,-1.3585882E-3,5.5331187E-3,-1.0969085E-3,2.8092712E-3,1.1798411E-2,1.3982634E-2,7.178277E-3,2.2002682E-3,1.767411E-2,1.1475553E-2,1.8589586E-2,1.8393112E-2,2.5588935E-2],"categories":[],"categories_nodes":[],"categories_segments":[],"categories_sizes":[],"default_left":[0,0,0,0,0,0,0,0,0,0,0,0,0,0,0,0,0,0,0,0,0,0,0,0,0,0,0,0,0,0,0],"id":3,"left_children":[1,3,5,7,9,11,13,15,17,19,21,23,25,27,29,-1,-1,-1,-1,-1,-1,-1,-1,-1,-1,-1,-1,-1,-1,-1,-1],"loss_changes":[1.4181654E2,3.1954832E1,1.6495003E1,4.9366417E0,2.6103215E0,2.2154274E0,2.8781204E0,5.993042E-1,5.6327343E-1,4.0392283E-1,2.0048604E0,1.4163027E0,9.2077255E-1,9.043846E-1,1.3489609E0,0E0,0E0,0E0,0E0,0E0,0E0,0E0,0E0,0E0,0E0,0E0,0E0,0E0,0E0,0E0,0E0],"parents":[2147483647,0,0,1,1,2,2,3,3,4,4,5,5,6,6,7,7,8,8,9,9,10,10,11,11,12,12,13,13,14,14],"right_children":[2,4,6,8,10,12,14,16,18,20,22,24,26,28,30,-1,-1,-1,-1,-1,-1,-1,-1,-1,-1,-1,-1,-1,-1,-1,-1],"split_conditions":[3.8127154E-1,1.7426273E-1,6.219839E-1,7.506702E-2,2.30563E-1,9.829629E-1,7.8016084E-1,2.6809651E-2,9.829629E-1,1.7037086E-2,1E0,6.69873E-2,3.2586855E-1,3.7059048E-1,3.7059048E-1,-8.827648E-3,-7.117705E-3,-4.410812E-3,-1.3585882E-3,5.5331187E-3,-1.0969085E-3,2.8092712E-3,1.1798411E-2,1.3982634E-2,7.178277E-3,2.2002682E-3,1.767411E-2,1.1475553E-2,1.8589586E-2,1.8393112E-2,2.5588935E-2],"split_indices":[18,18,18,18,18,12,18,18,12,12,12,12,0,13,13,0,0,0,0,0,0,0,0,0,0,0,0,0,0,0,0],"split_type":[0,0,0,0,0,0,0,0,0,0,0,0,0,0,0,0,0,0,0,0,0,0,0,0,0,0,0,0,0,0,0],"sum_hessian":[6.477E3,5.197E3,1.28E3,3.496E3,1.701E3,6.81E2,5.99E2,2.158E3,1.338E3,5.67E2,1.134E3,5.73E2,1.08E2,2.22E2,3.77E2,9.62E2,1.196E3,1.163E3,1.75E2,2.3E1,5.44E2,1.069E3,6.5E1,9.2E1,4.81E2,1.1E1,9.7E1,7.4E1,1.48E2,1.04E2,2.73E2],"tree_param":{"num_deleted":"0","num_feature":"20","num_nodes":"31","size_leaf_vector":"1"}},{"base_weights":[6.815406E-5,-6.901896E-2,2.862313E-1,-1.2167909E-1,3.7900083E-2,2.0610863E-1,4.294977E-1,-1.4909935E-1,-7.4996166E-2,-1.5547449E-2,6.412871E-2,1.5919524E-1,2.8533074E-1,3.9030588E-1,5.460284E-1,-8.386724E-3,-6.725341E-3,-4.135068E-3,-1.1561859E-3,-1.8305734E-3,8.8457915E-4,2.7188722E-3,1.1217429E-2,7.3503624E-3,1.748546E-2,8.81075E-3,1.588869E-2,2.2773895E-2,1.6709954E-2,2.2045653E-2,2.9335842E-2],"categories":[],"categories_nodes":[],"categories_segments":[],"categories_sizes":[],"default_left":[0,0,0,0,0,0,0,0,0,0,0,0,0,0,0,0,0,0,0,0,0,0,0,0,0,0,0,0,0,0,0],"id":4,"left_children":[1,3,5,7,9,11,13,15,17,19,21,23,25,27,29,-1,-1,-1,-1,-1,-1,-1,-1,-1,-1,-1,-1,-1,-1,-1,-1],"loss_changes":[1.2809102E2,2.9389517E1,1.437487E1,4.4651833E0,2.416394E0,2.965004E0,1.8466263E0,5.7624054E-1,5.160818E-1,3.9833152E-1,1.7938743E0,1.1351242E0,1.0060158E0,1.094677E0,2.1605301E-1,0E0,0E0,0E0,0E0,0E0,0E0,0E0,0E0,0E0,0E0,0E0,0E0,0E0,0E0,0E0,0E0],"parents":[2147483647,0,0,1,1,2,2,3,3,4,4,5,5,6,6,7,7,8,8,9,9,10,10,11,11,12,12,13,13,14,14],"right_children":[2,4,6,8,10,12,14,16,18,20,22,24,26,28,30,-1,-1,-1,-1,-1,-1,-1,-1,-1,-1,-1,-1,-1,-1,-1,-1],"split_conditions":[3.8873994E-1,1.7426273E-1,7.211796E-1,7.7747986E-2,2.30563E-1,5.4959786E-1,7.5603217E-1,2.6809651E-2,9.829629E-1,2.3324397E-1,1E0,1E0,3.7059048E-1,3.9212757E-1,8.44504E-1,-8.386724E-3,-6.725341E-3,-4.135068E-3,-1.1561859E-3,-1.8305734E-3,8.8457915E-4,2.7188722E-3,1.1217429E-2,7.3503624E-3,1.748546E-2,8.81075E-3,1.588869E-2,2.2773895E-2,1.6709954E-2,2.2045653E-2,2.9335842E-2],"split_indices":[18,18,18,18,18,18,19,18,12,19,12,12,13,1,18,0,0,0,0,0,0,0,0,0,0,0,0,0,0,0,0],"split_type":[0,0,0,0,0,0,0,0,0,0,0,0,0,0,0,0,0,0,0,0,0,0,0,0,0,0,0,0,0,0,0],"sum_hessian":[6.477E3,5.218E3,1.259E3,3.496E3,1.722E3,8.09E2,4.5E2,2.201E3,1.295E3,5.67E2,1.155E3,5.1E2,2.99E2,3.4E2,1.1E2,9.62E2,1.239E3,1.127E3,1.68E2,3.47E2,2.2E2,1.09E3,6.5E1,4.81E2,2.9E1,7E1,2.29E2,1.54E2,1.86E2,3.4E1,7.6E1],"tree_param":{"num_deleted":"0","num_feature":"20","num_nodes":"31","size_leaf_vector":"1"}},{"base_weights":[8.527525E-5,-6.823105E-2,2.6159117E-1,-1.2579519E-1,1.6022991E-2,1.555819E-1,3.670534E-1,-1.5068796E-1,-9.666138E-2,-2.8351493E-2,5.786222E-2,7.698112E-2,1.8715715E-1,2.8767875E-1,4.280282E-1,-5.734513E-3,-7.840986E-3,-6.2444955E-3,-4.2614494E-3,3.560906E-3,-1.6473106E-3,2.4159008E-3,1.05128465E-2,-2.6560328E-3,5.3480384E-3,1.2528962E-2,7.4175345E-3,1.0256149E-2,1.6033381E-2,1.3751102E-2,2.263402E-2],"categories":[],"categories_nodes":[],"categories_segments":[],"categories_sizes":[],"default_left":[0,0,0,0,0,0,0,0,0,0,0,0,0,0,0,0,0,0,0,0,0,0,0,0,0,0,0,0,0,0,0],"id":5,"left_children":[1,3,5,7,9,11,13,15,17,19,21,23,25,27,29,-1,-1,-1,-1,-1,-1,-1,-1,-1,-1,-1,-1,-1,-1,-1,-1],"loss_changes":[1.15748116E2,2.4916523E1,1.4946419E1,2.1988068E0,3.8744957E0,1.6509075E0,3.1292496E0,3.4489822E-1,4.44067E-1,4.6578807E-1,1.5519581E0,7.6236033E-1,1.1392746E0,7.3763275E-1,1.3012924E0,0E0,0E0,0E0,0E0,0E0,0E0,0E0,0E0,0E0,0E0,0E0,0E0,0E0,0E0,0E0,0E0],"parents":[2147483647,0,0,1,1,2,2,3,3,4,4,5,5,6,6,7,7,8,8,9,9,10,10,11,11,12,12,13,13,14,14],"right_children":[2,4,6,8,10,12,14,16,18,20,22,24,26,28,30,-1,-1,-1,-1,-1,-1,-1,-1,-1,-1,-1,-1,-1,-1,-1,-1],"split_conditions":[3.6997318E-1,1.3672923E-1,5.8176947E-1,5.0938338E-2,2.30563E-1,3.7059048E-1,7.8016084E-1,6.69873E-2,5.0938338E-2,1.7037086E-2,1E0,1.07573725E-1,7.5E-1,3.7059048E-1,1.2516756E-1,-5.734513E-3,-7.840986E-3,-6.2444955E-3,-4.2614494E-3,3.560906E-3,-1.6473106E-3,2.4159008E-3,1.05128465E-2,-2.6560328E-3,5.3480384E-3,1.2528962E-2,7.4175345E-3,1.0256149E-2,1.6033381E-2,1.3751102E-2,2.263402E-2],"split_indices":[18,18,18,18,18,13,18,12,19,12,12,19,13,13,19,0,0,0,0,0,0,0,0,0,0,0,0,0,0,0,0],"split_type":[0,0,0,0,0,0,0,0,0,0,0,0,0,0,0,0,0,0,0,0,0,0,0,0,0,0,0,0,0,0,0],"sum_hessian":[6.477E3,5.136E3,1.341E3,3.051E3,2.085E3,6.7E2,6.71E2,1.643E3,1.408E3,1.012E3,1.073E3,1.93E2,4.77E2,2.94E2,3.77E2,2.42E2,1.401E3,4.03E2,1.005E3,4.4E1,9.68E2,1.011E3,6.2E1,3.6E1,1.57E2,1.79E2,2.98E2,8.6E1,2.08E2,5.4E1,3.23E2],"tree_param":{"num_deleted":"0","num_feature":"20","num_nodes":"31","size_leaf_vector":"1"}},{"base_weights":[9.2756854E-5,-6.2329043E-2,2.5864774E-1,-1.18646815E-1,1.9465491E-2,1.9496585E-1,4.0672302E-1,-1.4207393E-1,-8.93448E-2,-2.5974812E-2,5.773486E-2,1.4349405E-1,2.6495814E-1,3.0776218E-1,4.431616E-1,-7.7326596E-3,-6.239482E-3,-5.867815E-3,-3.921129E-3,-2.0653307E-3,2.2434535E-4,2.1499593E-3,7.362058E-3,3.825084E-3,8.635873E-3,1.1864529E-2,1.8965028E-2,1.8933617E-2,1.1262794E-2,2.4894057E-2,1.7852679E-2],"categories":[],"categories_nodes":[],"categories_segments":[],"categories_sizes":[],"default_left":[0,0,0,0,0,0,0,0,0,0,0,0,0,0,0,0,0,0,0,0,0,0,0,0,0,0,0,0,0,0,0],"id":6,"left_children":[1,3,5,7,9,11,13,15,17,19,21,23,25,27,29,-1,-1,-1,-1,-1,-1,-1,-1,-1,-1,-1,-1,-1,-1,-1,-1],"loss_changes":[1.0456759E2,2.4043562E1,1.1802147E1,2.1091576E0,3.7037709E0,3.1431007E0,1.226677E0,3.537979E-1,4.1178036E-1,4.5507556E-1,1.5183585E0,9.8719406E-1,1.0900078E0,5.290079E-1,1.1132584E0,0E0,0E0,0E0,0E0,0E0,0E0,0E0,0E0,0E0,0E0,0E0,0E0,0E0,0E0,0E0,0E0],"parents":[2147483647,0,0,1,1,2,2,3,3,4,4,5,5,6,6,7,7,8,8,9,9,10,10,11,11,12,12,13,13,14,14],"right_children":[2,4,6,8,10,12,14,16,18,20,22,24,26,28,30,-1,-1,-1,-1,-1,-1,-1,-1,-1,-1,-1,-1,-1,-1,-1,-1],"split_conditions":[3.8873994E-1,1.3941018E-1,7.8016084E-1,5.3619303E-2,2.30563E-1,5.4959786E-1,3.7059048E-1,5E-1,5.0938338E-2,2.4128686E-1,9.829629E-1,3.7059048E-1,9.829629E-1,6.340302E-1,4.5186207E-1,-7.7326596E-3,-6.239482E-3,-5.867815E-3,-3.921129E-3,-2.0653307E-3,2.2434535E-4,2.1499593E-3,7.362058E-3,3.825084E-3,8.635873E-3,1.1864529E-2,1.8965028E-2,1.8933617E-2,1.1262794E-2,2.4894057E-2,1.7852679E-2],"split_indices":[18,18,18,18,18,18,13,13,19,19,12,13,12,4,1,0,0,0,0,0,0,0,0,0,0,0,0,0,0,0,0],"split_type":[0,0,0,0,0,0,0,0,0,0,0,0,0,0,0,0,0,0,0,0,0,0,0,0,0,0,0,0,0,0,0],"sum_hessian":[6.477E3,5.218E3,1.259E3,3.09E3,2.128E3,8.82E2,3.77E2,1.715E3,1.375E3,9.73E2,1.155E3,5.1E2,3.72E2,1.04E2,2.73E2,9.88E2,7.27E2,3.83E2,9.92E2,6.47E2,3.26E2,9.93E2,1.62E2,1.56E2,3.54E2,3.02E2,7E1,5.4E1,5E1,1.64E2,1.09E2],"tree_param":{"num_deleted":"0","num_feature":"20","num_nodes":"31","size_leaf_vector":"1"}},{"base_weights":[1.0357461E-4,-5.7852615E-2,2.5170884E-1,-1.0453884E-1,3.4418344E-2,1.9042541E-1,3.8657984E-1,-1.2824045E-1,-6.418741E-2,1.504558E-3,7.169239E-2,1.40683E-1,2.5179288E-1,2.4298216E-1,4.0976286E-1,-7.1057715E-3,-5.5679544E-3,-3.5729706E-3,-7.635074E-4,-1.4081254E-3,1.1185358E-3,2.7320262E-3,8.0723325E-3,5.3860797E-3,9.852658E-3,1.1273259E-2,1.8030133E-2,1.4770876E-2,-1.1259344E-3,1.3757597E-2,2.1724286E-2],"categories":[],"categories_nodes":[],"categories_segments":[],"categories_sizes":[],"default_left":[0,0,0,0,0,0,0,0,0,0,0,0,0,0,0,0,0,0,0,0,0,0,0,0,0,0,0,0,0,0,0],"id":7,"left_children":[1,3,5,7,9,11,13,15,17,19,21,23,25,27,29,-1,-1,-1,-1,-1,-1,-1,-1,-1,-1,-1,-1,-1,-1,-1,-1],"loss_changes":[9.4477295E1,2.2688385E1,9.9522705E0,3.3362808E0,2.1713812E0,2.5165195E0,1.1588097E0,4.999466E-1,4.5993042E-1,5.831444E-1,1.2614746E0,8.409033E-1,9.872341E-1,7.723422E-1,9.587059E-1,0E0,0E0,0E0,0E0,0E0,0E0,0E0,0E0,0E0,0E0,0E0,0E0,0E0,0E0,0E0,0E0],"parents":[2147483647,0,0,1,1,2,2,3,3,4,4,5,5,6,6,7,7,8,8,9,9,10,10,11,11,12,12,13,13,14,14],"right_children":[2,4,6,8,10,12,14,16,18,20,22,24,26,28,30,-1,-1,-1,-1,-1,-1,-1,-1,-1,-1,-1,-1,-1,-1,-1,-1],"split_conditions":[3.994638E-1,1.7426273E-1,7.8016084E-1,7.7747986E-2,2.627346E-1,5.4959786E-1,1.2516756E-1,5E-1,9.829629E-1,2.30563E-1,9.829629E-1,4.1286862E-1,9.829629E-1,9.282032E-1,2.9806107E-1,-7.1057715E-3,-5.5679544E-3,-3.5729706E-3,-7.635074E-4,-1.4081254E-3,1.1185358E-3,2.7320262E-3,8.0723325E-3,5.3860797E-3,9.852658E-3,1.1273259E-2,1.8030133E-2,1.4770876E-2,-1.1259344E-3,1.3757597E-2,2.1724286E-2],"split_indices":[18,18,18,18,19,18,19,13,12,18,12,19,12,14,6,0,0,0,0,0,0,0,0,0,0,0,0,0,0,0,0],"split_type":[0,0,0,0,0,0,0,0,0,0,0,0,0,0,0,0,0,0,0,0,0,0,0,0,0,0,0,0,0,0,0],"sum_hessian":[6.477E3,5.265E3,1.212E3,3.496E3,1.769E3,8.35E2,3.77E2,2.201E3,1.295E3,9.4E2,8.29E2,4.63E2,3.72E2,5.4E1,3.23E2,1.204E3,9.97E2,1.127E3,1.68E2,3.88E2,5.52E2,6.98E2,1.31E2,2.94E2,1.69E2,3.02E2,7E1,4.5E1,9E0,5.2E1,2.71E2],"tree_param":{"num_deleted":"0","num_feature":"20","num_nodes":"31","size_leaf_vector":"1"}},{"base_weights":[1.1185004E-4,-5.859239E-2,2.2482389E-1,-1.0805472E-1,1.3803404E-2,1.4282632E-1,3.2598954E-1,-1.29599E-1,-8.284048E-2,-2.4193622E-2,4.9629457E-2,1.3016069E-1,3.3190858E-1,2.3286013E-1,3.647198E-1,-4.798658E-3,-6.7667365E-3,-4.448613E-3,-1.968882E-3,3.5281912E-3,-1.4284578E-3,2.0516554E-3,9.346454E-3,3.4716285E-3,7.7635953E-3,-6.296605E-4,1.7811824E-2,1.623087E-2,8.020493E-3,2.1050828E-2,1.4787033E-2],"categories":[],"categories_nodes":[],"categories_segments":[],"categories_sizes":[],"default_left":[0,0,0,0,0,0,0,0,0,0,0,0,0,0,0,0,0,0,0,0,0,0,0,0,0,0,0,0,0,0,0],"id":8,"left_children":[1,3,5,7,9,11,13,15,17,19,21,23,25,27,29,-1,-1,-1,-1,-1,-1,-1,-1,-1,-1,-1,-1,-1,-1,-1,-1],"loss_changes":[8.546803E1,1.839639E1,1.1085785E1,1.6471825E0,2.840838E0,1.7361689E0,2.0792236E0,3.0408478E-1,3.7200165E-1,4.2202026E-1,1.2599456E0,1.0536404E0,3.900113E-1,1.1378908E0,1.5142403E0,0E0,0E0,0E0,0E0,0E0,0E0,0E0,0E0,0E0,0E0,0E0,0E0,0E0,0E0,0E0,0E0],"parents":[2147483647,0,0,1,1,2,2,3,3,4,4,5,5,6,6,7,7,8,8,9,9,10,10,11,11,12,12,13,13,14,14],"right_children":[2,4,6,8,10,12,14,16,18,20,22,24,26,28,30,-1,-1,-1,-1,-1,-1,-1,-1,-1,-1,-1,-1,-1,-1,-1,-1],"split_conditions":[3.6997318E-1,1.3672923E-1,6.219839E-1,5.0938338E-2,2.30563E-1,1E0,3.7059048E-1,6.69873E-2,9.829629E-1,1.7037086E-2,1E0,3.7059048E-1,1.9615242E-1,2.909934E-1,4.4217888E-1,-4.798658E-3,-6.7667365E-3,-4.448613E-3,-1.968882E-3,3.5281912E-3,-1.4284578E-3,2.0516554E-3,9.346454E-3,3.4716285E-3,7.7635953E-3,-6.296605E-4,1.7811824E-2,1.623087E-2,8.020493E-3,2.1050828E-2,1.4787033E-2],"split_indices":[18,18,18,18,18,12,13,12,12,12,12,13,14,1,1,0,0,0,0,0,0,0,0,0,0,0,0,0,0,0,0],"split_type":[0,0,0,0,0,0,0,0,0,0,0,0,0,0,0,0,0,0,0,0,0,0,0,0,0,0,0,0,0,0,0],"sum_hessian":[6.477E3,5.136E3,1.341E3,3.051E3,2.085E3,7.42E2,5.99E2,1.643E3,1.408E3,1.012E3,1.073E3,6.97E2,4.5E1,1.78E2,4.21E2,2.42E2,1.401E3,1.233E3,1.75E2,4.4E1,9.68E2,1.011E3,6.2E1,2.05E2,4.92E2,3E0,4.2E1,7.7E1,1.01E2,2.29E2,1.92E2],"tree_param":{"num_deleted":"0","num_feature":"20","num_nodes":"31","size_leaf_vector":"1"}},{"base_weights":[1.19226046E-4,-6.0505435E-2,1.9689107E-1,-1.0265788E-1,7.1653128E-3,1.15550674E-1,3.0008918E-1,-1.2138333E-1,-7.6464534E-2,-2.298187E-2,4.1470855E-2,5.443207E-2,1.4261109E-1,2.5768536E-1,3.804579E-1,-6.649177E-3,-5.2888794E-3,-4.115692E-3,-1.7445661E-3,-1.527854E-3,1.5786963E-3,1.2528446E-3,6.6944E-3,-3.7319828E-3,4.136583E-3,5.942534E-3,1.0328479E-2,1.2114872E-2,2.1246193E-2,1.9521097E-2,-7.3003466E-3],"categories":[],"categories_nodes":[],"categories_segments":[],"categories_sizes":[],"default_left":[0,0,0,0,0,0,0,0,0,0,0,0,0,0,0,0,0,0,0,0,0,0,0,0,0,0,0,0,0,0,0],"id":9,"left_children":[1,3,5,7,9,11,13,15,17,19,21,23,25,27,29,-1,-1,-1,-1,-1,-1,-1,-1,-1,-1,-1,-1,-1,-1,-1,-1],"loss_changes":[7.7289444E1,1.4129105E1,1.2774834E1,1.4876709E0,1.9680309E0,1.4063168E0,2.1920967E0,3.078041E-1,3.0717516E-1,4.196089E-1,1.3467144E0,9.704817E-1,8.750992E-1,1.0370827E0,1.2635155E0,0E0,0E0,0E0,0E0,0E0,0E0,0E0,0E0,0E0,0E0,0E0,0E0,0E0,0E0,0E0,0E0],"parents":[2147483647,0,0,1,1,2,2,3,3,4,4,5,5,6,6,7,7,8,8,9,9,10,10,11,11,12,12,13,13,14,14],"right_children":[2,4,6,8,10,12,14,16,18,20,22,24,26,28,30,-1,-1,-1,-1,-1,-1,-1,-1,-1,-1,-1,-1,-1,-1,-1,-1],"split_conditions":[3.3800784E-1,1.3672923E-1,5.8176947E-1,5.6300268E-2,2.30563E-1,3.7059048E-1,9.5174265E-1,5E-1,3.6461127E-1,9.829629E-1,9.829629E-1,1.07573725E-1,4.9865952E-1,1E0,1E0,-6.649177E-3,-5.2888794E-3,-4.115692E-3,-1.7445661E-3,-1.527854E-3,1.5786963E-3,1.2528446E-3,6.6944E-3,-3.7319828E-3,4.136583E-3,5.942534E-3,1.0328479E-2,1.2114872E-2,2.1246193E-2,1.9521097E-2,-7.3003466E-3],"split_indices":[18,18,18,18,18,13,18,13,19,12,12,19,18,12,14,0,0,0,0,0,0,0,0,0,0,0,0,0,0,0,0],"split_type":[0,0,0,0,0,0,0,0,0,0,0,0,0,0,0,0,0,0,0,0,0,0,0,0,0,0,0,0,0,0,0],"sum_hessian":[6.477E3,4.952E3,1.525E3,3.051E3,1.901E3,8.54E2,6.71E2,1.777E3,1.274E3,1.012E3,8.89E2,2.63E2,5.91E2,4.42E2,2.29E2,1.015E3,7.62E2,1.116E3,1.58E2,8.89E2,1.23E2,7.56E2,1.33E2,4.7E1,2.16E2,4.33E2,1.58E2,4.07E2,3.5E1,2.25E2,4E0],"tree_param":{"num_deleted":"0","num_feature":"20","num_nodes":"31","size_leaf_vector":"1"}},{"base_weights":[1.2136553E-4,-4.9723957E-2,2.1651489E-1,-8.983537E-2,2.9552503E-2,1.6304386E-1,3.342008E-1,-1.1029958E-1,-5.4995842E-2,-6.1409886E-4,6.371783E-2,1.2089221E-1,2.1504202E-1,3.0039248E-1,4.277308E-1,-6.134844E-3,-4.7610193E-3,-2.9311148E-3,1.394797E-3,-3.4284955E-4,4.0462688E-3,2.7249178E-3,9.892522E-3,3.7971043E-4,6.743231E-3,6.6290568E-3,1.2217621E-2,1.0906635E-2,1.6602373E-2,-2.5725216E-4,2.1612324E-2],"categories":[],"categories_nodes":[],"categories_segments":[],"categories_sizes":[],"default_left":[0,0,0,0,0,0,0,0,0,0,0,0,0,0,0,0,0,0,0,0,0,0,0,0,0,0,0,0,0,0,0],"id":10,"left_children":[1,3,5,7,9,11,13,15,17,19,21,23,25,27,29,-1,-1,-1,-1,-1,-1,-1,-1,-1,-1,-1,-1,-1,-1,-1,-1],"loss_changes":[6.9883804E1,1.674796E1,7.5786552E0,2.4871693E0,1.8242928E0,1.8063564E0,1.0667839E0,3.9995956E-1,3.9121675E-1,4.795636E-1,1.0156212E0,7.3350906E-1,8.691292E-1,6.5927315E-1,1.9378662E-1,0E0,0E0,0E0,0E0,0E0,0E0,0E0,0E0,0E0,0E0,0E0,0E0,0E0,0E0,0E0,0E0],"parents":[2147483647,0,0,1,1,2,2,3,3,4,4,5,5,6,6,7,7,8,8,9,9,10,10,11,11,12,12,13,13,14,14],"right_children":[2,4,6,8,10,12,14,16,18,20,22,24,26,28,30,-1,-1,-1,-1,-1,-1,-1,-1,-1,-1,-1,-1,-1,-1,-1,-1],"split_conditions":[3.994638E-1,1.7426273E-1,7.8016084E-1,7.7747986E-2,2.627346E-1,5.4959786E-1,7.5603217E-1,5E-1,1E0,6.193562E-1,1E0,7.7747986E-2,2.0375335E-1,3.3705512E-1,8.973933E-2,-6.134844E-3,-4.7610193E-3,-2.9311148E-3,1.394797E-3,-3.4284955E-4,4.0462688E-3,2.7249178E-3,9.892522E-3,3.7971043E-4,6.743231E-3,6.6290568E-3,1.2217621E-2,1.0906635E-2,1.6602373E-2,-2.5725216E-4,2.1612324E-2],"split_indices":[18,18,18,18,19,18,19,13,12,0,12,19,19,6,1,0,0,0,0,0,0,0,0,0,0,0,0,0,0,0,0],"split_type":[0,0,0,0,0,0,0,0,0,0,0,0,0,0,0,0,0,0,0,0,0,0,0,0,0,0,0,0,0,0,0],"sum_hessian":[6.477E3,5.265E3,1.212E3,3.496E3,1.769E3,8.35E2,3.77E2,2.201E3,1.295E3,9.4E2,8.29E2,4.63E2,3.72E2,2.8E2,9.7E1,1.204E3,9.97E2,1.241E3,5.4E1,8.74E2,6.6E1,7.77E2,5.2E1,5.1E1,4.12E2,9.9E1,2.73E2,8E1,2E2,1E0,9.6E1],"tree_param":{"num_deleted":"0","num_feature":"20","num_nodes":"31","size_leaf_vector":"1"}},{"base_weights":[1.274511E-4,-5.4719646E-2,1.7814681E-1,-9.685113E-2,7.524722E-4,1.04870506E-1,2.711127E-1,-1.1221119E-1,-7.713775E-2,-2.5553651E-2,3.769843E-2,4.7426593E-2,1.3031024E-1,2.3208736E-1,3.451002E-1,-4.007971E-3,-5.890385E-3,-4.6383888E-3,-3.145198E-3,-1.466628E-3,4.0600807E-3,1.1262023E-3,6.1570522E-3,-3.6370445E-3,3.689443E-3,5.084782E-3,8.946744E-3,1.0875928E-2,1.953767E-2,1.7728893E-2,-7.6154703E-3],"categories":[],"categories_nodes":[],"categories_segments":[],"categories_sizes":[],"default_left":[0,0,0,0,0,0,0,0,0,0,0,0,0,0,0,0,0,0,0,0,0,0,0,0,0,0,0,0,0,0,0],"id":11,"left_children":[1,3,5,7,9,11,13,15,17,19,21,23,25,27,29,-1,-1,-1,-1,-1,-1,-1,-1,-1,-1,-1,-1,-1,-1,-1,-1],"loss_changes":[6.3259933E1,1.157584E1,1.0366985E1,8.437233E-1,2.079868E0,1.2432804E0,1.8602333E0,2.7397537E-1,2.6914263E-1,5.066549E-1,1.1511462E0,8.4168994E-1,8.0549717E-1,9.390297E-1,1.1382885E0,0E0,0E0,0E0,0E0,0E0,0E0,0E0,0E0,0E0,0E0,0E0,0E0,0E0,0E0,0E0,0E0],"parents":[2147483647,0,0,1,1,2,2,3,3,4,4,5,5,6,6,7,7,8,8,9,9,10,10,11,11,12,12,13,13,14,14],"right_children":[2,4,6,8,10,12,14,16,18,20,22,24,26,28,30,-1,-1,-1,-1,-1,-1,-1,-1,-1,-1,-1,-1,-1,-1,-1,-1],"split_conditions":[3.3800784E-1,1.17962465E-1,5.8176947E-1,4.8257373E-2,2.30563E-1,3.7059048E-1,9.5174265E-1,6.69873E-2,8.310992E-2,1E0,9.829629E-1,1.07573725E-1,4.1823056E-1,1E0,1E0,-4.007971E-3,-5.890385E-3,-4.6383888E-3,-3.145198E-3,-1.466628E-3,4.0600807E-3,1.1262023E-3,6.1570522E-3,-3.6370445E-3,3.689443E-3,5.084782E-3,8.946744E-3,1.0875928E-2,1.953767E-2,1.7728893E-2,-7.6154703E-3],"split_indices":[18,18,18,18,18,13,18,12,19,12,12,19,19,12,14,0,0,0,0,0,0,0,0,0,0,0,0,0,0,0,0],"split_type":[0,0,0,0,0,0,0,0,0,0,0,0,0,0,0,0,0,0,0,0,0,0,0,0,0,0,0,0,0,0,0],"sum_hessian":[6.477E3,4.952E3,1.525E3,2.814E3,2.138E3,8.54E2,6.71E2,1.579E3,1.235E3,1.249E3,8.89E2,2.63E2,5.91E2,4.42E2,2.29E2,2.37E2,1.342E3,5.86E2,6.49E2,1.207E3,4.2E1,7.56E2,1.33E2,4.7E1,2.16E2,3.74E2,2.17E2,4.07E2,3.5E1,2.25E2,4E0],"tree_param":{"num_deleted":"0","num_feature":"20","num_nodes":"31","size_leaf_vector":"1"}},{"base_weights":[1.2830508E-4,-6.4118534E-2,1.3755548E-1,-9.3080886E-2,-1.6594425E-2,7.387877E-2,2.4901855E-1,-1.0660689E-1,-7.464087E-2,-2.1437665E-2,8.834852E-2,5.1561166E-2,1.3362303E-1,1.9405985E-1,3.0259153E-1,-3.808415E-3,-5.596085E-3,-4.517529E-3,-3.068282E-3,1.8292976E-3,-1.5091054E-3,1.702085E-3,9.364899E-3,-9.589693E-4,3.1737573E-3,5.1506525E-3,1.288262E-2,8.549265E-3,1.4489985E-2,1.0803268E-2,1.6732251E-2],"categories":[],"categories_nodes":[],"categories_segments":[],"categories_sizes":[],"default_left":[0,0,0,0,0,0,0,0,0,0,0,0,0,0,0,0,0,0,0,0,0,0,0,0,0,0,0,0,0,0,0],"id":12,"left_children":[1,3,5,7,9,11,13,15,17,19,21,23,25,27,29,-1,-1,-1,-1,-1,-1,-1,-1,-1,-1,-1,-1,-1,-1,-1,-1],"loss_changes":[5.7204777E1,6.075306E0,1.4631054E1,6.7619896E-1,8.5221946E-1,1.7464647E0,2.1495018E0,2.4707985E-1,2.3720789E-1,8.129191E-1,3.9127284E-1,8.09464E-1,1.3288226E0,7.7446365E-1,9.760628E-1,0E0,0E0,0E0,0E0,0E0,0E0,0E0,0E0,0E0,0E0,0E0,0E0,0E0,0E0,0E0,0E0],"parents":[2147483647,0,0,1,1,2,2,3,3,4,4,5,5,6,6,7,7,8,8,9,9,10,10,11,11,12,12,13,13,14,14],"right_children":[2,4,6,8,10,12,14,16,18,20,22,24,26,28,30,-1,-1,-1,-1,-1,-1,-1,-1,-1,-1,-1,-1,-1,-1,-1,-1],"split_conditions":[2.7086356E-1,1.12600535E-1,5.4959786E-1,4.8257373E-2,1E0,3.994638E-1,7.8016084E-1,6.69873E-2,7.7747986E-2,6.69873E-2,8.390759E-1,7.7747986E-2,9.829629E-1,9.829629E-1,3.7059048E-1,-3.808415E-3,-5.596085E-3,-4.517529E-3,-3.068282E-3,1.8292976E-3,-1.5091054E-3,1.702085E-3,9.364899E-3,-9.589693E-4,3.1737573E-3,5.1506525E-3,1.288262E-2,8.549265E-3,1.4489985E-2,1.0803268E-2,1.6732251E-2],"split_indices":[18,18,18,18,12,19,18,12,19,12,9,19,12,12,13,0,0,0,0,0,0,0,0,0,0,0,0,0,0,0,0],"split_type":[0,0,0,0,0,0,0,0,0,0,0,0,0,0,0,0,0,0,0,0,0,0,0,0,0,0,0,0,0,0,0],"sum_hessian":[6.477E3,4.414E3,2.063E3,2.742E3,1.672E3,1.314E3,7.49E2,1.579E3,1.163E3,1.599E3,7.3E1,9.58E2,3.56E2,3.72E2,3.77E2,2.37E2,1.342E3,5.3E2,6.33E2,2.09E2,1.39E3,4.8E1,2.5E1,1.38E2,8.2E2,2.87E2,6.9E1,3.02E2,7E1,1.04E2,2.73E2],"tree_param":{"num_deleted":"0","num_feature":"20","num_nodes":"31","size_leaf_vector":"1"}},{"base_weights":[1.3195448E-4,-4.283126E-2,1.8664816E-1,-7.52991E-2,2.9898275E-2,1.3885848E-1,2.834335E-1,-9.478507E-2,-4.54495E-2,2.3228107E-2,1.5850891E-1,1.2760408E-1,2.9489073E-1,1.5174766E-1,3.0577287E-1,-5.3104744E-3,-4.0448043E-3,-2.7602843E-3,-9.972694E-4,-2.7802197E-4,2.332848E-3,3.915891E-3,1.3817406E-2,1.0048398E-2,5.3478214E-3,2.1498485E-2,1.1595621E-2,1.0049695E-2,-4.294706E-3,1.0459557E-2,1.6519776E-2],"categories":[],"categories_nodes":[],"categories_segments":[],"categories_sizes":[],"default_left":[0,0,0,0,0,0,0,0,0,0,0,0,0,0,0,0,0,0,0,0,0,0,0,0,0,0,0,0,0,0,0],"id":13,"left_children":[1,3,5,7,9,11,13,15,17,19,21,23,25,27,29,-1,-1,-1,-1,-1,-1,-1,-1,-1,-1,-1,-1,-1,-1,-1,-1],"loss_changes":[5.1918377E1,1.243723E1,5.5711823E0,2.113474E0,1.3911895E0,1.3917942E0,1.1303139E0,3.4080887E-1,3.5720396E-1,1.043684E0,7.343292E-1,1.1312628E0,3.5966492E-1,7.194419E-1,7.4181366E-1,0E0,0E0,0E0,0E0,0E0,0E0,0E0,0E0,0E0,0E0,0E0,0E0,0E0,0E0,0E0,0E0],"parents":[2147483647,0,0,1,1,2,2,3,3,4,4,5,5,6,6,7,7,8,8,9,9,10,10,11,11,12,12,13,13,14,14],"right_children":[2,4,6,8,10,12,14,16,18,20,22,24,26,28,30,-1,-1,-1,-1,-1,-1,-1,-1,-1,-1,-1,-1,-1,-1,-1,-1],"split_conditions":[3.994638E-1,1.8766756E-1,7.587131E-1,7.7747986E-2,1E0,1E0,1.2516756E-1,5E-1,2.30563E-1,2.30563E-1,4.7184986E-1,1.4644662E-1,6.987927E-1,9.282032E-1,3.3705512E-1,-5.3104744E-3,-4.0448043E-3,-2.7602843E-3,-9.972694E-4,-2.7802197E-4,2.332848E-3,3.915891E-3,1.3817406E-2,1.0048398E-2,5.3478214E-3,2.1498485E-2,1.1595621E-2,1.0049695E-2,-4.294706E-3,1.0459557E-2,1.6519776E-2],"split_indices":[18,18,18,18,12,12,19,13,19,19,19,12,4,14,6,0,0,0,0,0,0,0,0,0,0,0,0,0,0,0,0],"split_type":[0,0,0,0,0,0,0,0,0,0,0,0,0,0,0,0,0,0,0,0,0,0,0,0,0,0,0,0,0,0,0],"sum_hessian":[6.477E3,5.265E3,1.212E3,3.64E3,1.625E3,8.13E2,3.99E2,2.201E3,1.439E3,1.546E3,7.9E1,7.6E2,5.3E1,5.9E1,3.4E2,1.204E3,9.97E2,1.04E3,3.99E2,6.94E2,8.52E2,4.8E1,3.1E1,1.65E2,5.95E2,1.5E1,3.8E1,4.9E1,1E1,7.1E1,2.69E2],"tree_param":{"num_deleted":"0","num_feature":"20","num_nodes":"31","size_leaf_vector":"1"}},{"base_weights":[1.3892852E-4,-4.7125056E-2,1.5354547E-1,-7.990993E-2,5.507208E-3,8.607284E-2,2.287596E-1,-9.591074E-2,-6.118371E-2,-1.9494623E-2,3.336424E-2,3.774048E-2,1.08116865E-1,1.1689757E-1,2.495757E-1,-3.7401046E-3,-5.1307804E-3,-3.2152073E-3,2.6994437E-4,-1.2257955E-3,3.2135628E-3,9.878331E-4,5.204062E-3,-3.5689573E-3,3.0471773E-3,7.0113735E-3,3.721411E-3,7.6886304E-3,-5.236083E-3,1.050183E-2,1.5396933E-2],"categories":[],"categories_nodes":[],"categories_segments":[],"categories_sizes":[],"default_left":[0,0,0,0,0,0,0,0,0,0,0,0,0,0,0,0,0,0,0,0,0,0,0,0,0,0,0,0,0,0,0],"id":14,"left_children":[1,3,5,7,9,11,13,15,17,19,21,23,25,27,29,-1,-1,-1,-1,-1,-1,-1,-1,-1,-1,-1,-1,-1,-1,-1,-1],"loss_changes":[4.6976646E1,8.5470495E0,7.7246017E0,9.086151E-1,1.3253492E0,8.5466385E-1,1.6496964E0,2.2500038E-1,2.9308987E-1,4.2345017E-1,8.64002E-1,6.474551E-1,5.877781E-1,9.559084E-1,1.3360481E0,0E0,0E0,0E0,0E0,0E0,0E0,0E0,0E0,0E0,0E0,0E0,0E0,0E0,0E0,0E0,0E0],"parents":[2147483647,0,0,1,1,2,2,3,3,4,4,5,5,6,6,7,7,8,8,9,9,10,10,11,11,12,12,13,13,14,14],"right_children":[2,4,6,8,10,12,14,16,18,20,22,24,26,28,30,-1,-1,-1,-1,-1,-1,-1,-1,-1,-1,-1,-1,-1,-1,-1,-1],"split_conditions":[3.3800784E-1,1.3672923E-1,5.603217E-1,5.0938338E-2,2.2703348E-1,3.7059048E-1,1.2516756E-1,1.4644662E-1,1E0,6.64282E-1,9.829629E-1,1.17962465E-1,8.535534E-1,9.282032E-1,8.6863273E-1,-3.7401046E-3,-5.1307804E-3,-3.2152073E-3,2.6994437E-4,-1.2257955E-3,3.2135628E-3,9.878331E-4,5.204062E-3,-3.5689573E-3,3.0471773E-3,7.0113735E-3,3.721411E-3,7.6886304E-3,-5.236083E-3,1.050183E-2,1.5396933E-2],"split_indices":[18,18,18,18,19,13,19,12,12,0,12,19,13,14,18,0,0,0,0,0,0,0,0,0,0,0,0,0,0,0,0],"split_type":[0,0,0,0,0,0,0,0,0,0,0,0,0,0,0,0,0,0,0,0,0,0,0,0,0,0,0,0,0,0,0],"sum_hessian":[6.477E3,4.952E3,1.525E3,3.051E3,1.901E3,8.05E2,7.2E2,1.643E3,1.408E3,1.002E3,8.99E2,2.53E2,5.52E2,1.14E2,6.06E2,3.99E2,1.244E3,1.345E3,6.3E1,9.46E2,5.6E1,7.55E2,1.44E2,4.4E1,2.09E2,2.81E2,2.71E2,9.8E1,1.6E1,3.64E2,2.42E2],"tree_param":{"num_deleted":"0","num_feature":"20","num_nodes":"31","size_leaf_vector":"1"}},{"base_weights":[1.3737437E-4,-5.6352224E-2,1.1653203E-1,-8.006517E-2,-1.6166449E-2,6.2611684E-2,2.1472737E-1,-9.932933E-2,-6.9603935E-2,-2.0735865E-2,8.0951706E-2,4.2927545E-2,1.1618361E-1,1.3849828E-1,2.4333894E-1,-5.0101303E-3,4.401514E-3,-1.8585775E-3,-3.7063658E-3,1.6794744E-3,-1.4456831E-3,1.3910746E-3,9.092443E-3,-4.5247707E-3,2.3853688E-3,4.482544E-3,1.1182449E-2,1.1397692E-2,3.6517184E-3,1.0425397E-2,1.6173726E-2],"categories":[],"categories_nodes":[],"categories_segments":[],"categories_sizes":[],"default_left":[0,0,0,0,0,0,0,0,0,0,0,0,0,0,0,0,0,0,0,0,0,0,0,0,0,0,0,0,0,0,0],"id":15,"left_children":[1,3,5,7,9,11,13,15,17,19,21,23,25,27,29,-1,-1,-1,-1,-1,-1,-1,-1,-1,-1,-1,-1,-1,-1,-1,-1],"loss_changes":[4.2599983E1,4.1553545E0,1.119549E1,5.4587746E-1,7.2059155E-1,1.437592E0,1.6020737E0,1.6638374E-1,2.58523E-1,6.8868804E-1,3.8627082E-1,6.433319E-1,1.0263948E0,1.1955662E0,1.4509659E0,0E0,0E0,0E0,0E0,0E0,0E0,0E0,0E0,0E0,0E0,0E0,0E0,0E0,0E0,0E0,0E0],"parents":[2147483647,0,0,1,1,2,2,3,3,4,4,5,5,6,6,7,7,8,8,9,9,10,10,11,11,12,12,13,13,14,14],"right_children":[2,4,6,8,10,12,14,16,18,20,22,24,26,28,30,-1,-1,-1,-1,-1,-1,-1,-1,-1,-1,-1,-1,-1,-1,-1,-1],"split_conditions":[2.6541555E-1,1.12600535E-1,5.4959786E-1,2.6809651E-2,1E0,3.994638E-1,3.7059048E-1,9.48821E-1,6.69873E-2,6.69873E-2,8.390759E-1,1.9615242E-1,9.829629E-1,2.909934E-1,9.5174265E-1,-5.0101303E-3,4.401514E-3,-1.8585775E-3,-3.7063658E-3,1.6794744E-3,-1.4456831E-3,1.3910746E-3,9.092443E-3,-4.5247707E-3,2.3853688E-3,4.482544E-3,1.1182449E-2,1.1397692E-2,3.6517184E-3,1.0425397E-2,1.6173726E-2],"split_indices":[18,18,18,18,12,19,13,1,12,12,9,14,12,1,18,0,0,0,0,0,0,0,0,0,0,0,0,0,0,0,0],"split_type":[0,0,0,0,0,0,0,0,0,0,0,0,0,0,0,0,0,0,0,0,0,0,0,0,0,0,0,0,0,0,0],"sum_hessian":[6.477E3,4.361E3,2.116E3,2.742E3,1.619E3,1.367E3,7.49E2,9.62E2,1.78E3,1.547E3,7.2E1,1.001E3,3.66E2,2.06E2,5.43E2,9.58E2,4E0,2.19E2,1.561E3,2.02E2,1.345E3,4.8E1,2.4E1,3.4E1,9.67E2,2.95E2,7.1E1,8.6E1,1.2E2,3.81E2,1.62E2],"tree_param":{"num_deleted":"0","num_feature":"20","num_nodes":"31","size_leaf_vector":"1"}},{"base_weights":[1.3972266E-4,-3.689498E-2,1.6091846E-1,-6.437345E-2,2.7250595E-2,1.2109536E-1,2.485671E-1,-7.888698E-2,-3.3928704E-2,2.117132E-2,1.4404418E-1,1.1059631E-1,2.6817104E-1,2.18301E-1,3.3281416E-1,-4.785027E-3,-3.4908005E-3,6.255265E-4,-2.0236638E-3,-8.2065957E-4,1.754816E-3,2.1077862E-2,5.5373157E-3,9.11836E-3,4.518098E-3,-1.9195427E-3,1.4329781E-2,1.336592E-2,8.622269E-3,1.1402901E-2,1.792111E-2],"categories":[],"categories_nodes":[],"categories_segments":[],"categories_sizes":[],"default_left":[0,0,0,0,0,0,0,0,0,0,0,0,0,0,0,0,0,0,0,0,0,0,0,0,0,0,0,0,0,0,0],"id":16,"left_children":[1,3,5,7,9,11,13,15,17,19,21,23,25,27,29,-1,-1,-1,-1,-1,-1,-1,-1,-1,-1,-1,-1,-1,-1,-1,-1],"loss_changes":[3.857849E1,9.283722E0,4.203806E0,1.6264648E0,1.1187825E0,1.2612553E0,8.9118385E-1,3.7399673E-1,3.6278474E-1,7.8719264E-1,6.740804E-1,1.1191702E0,3.2165766E-1,5.855131E-1,1.8115234E-1,0E0,0E0,0E0,0E0,0E0,0E0,0E0,0E0,0E0,0E0,0E0,0E0,0E0,0E0,0E0,0E0],"parents":[2147483647,0,0,1,1,2,2,3,3,4,4,5,5,6,6,7,7,8,8,9,9,10,10,11,11,12,12,13,13,14,14],"right_children":[2,4,6,8,10,12,14,16,18,20,22,24,26,28,30,-1,-1,-1,-1,-1,-1,-1,-1,-1,-1,-1,-1,-1,-1,-1,-1],"split_conditions":[3.994638E-1,1.930295E-1,7.8016084E-1,9.651475E-2,1E0,1E0,7.5603217E-1,2.4128687E-2,6.69873E-2,1.5154833E-1,3.0943233E-1,1.4644662E-1,1.9615242E-1,4.005329E-1,8.44504E-1,-4.785027E-3,-3.4908005E-3,6.255265E-4,-2.0236638E-3,-8.2065957E-4,1.754816E-3,2.1077862E-2,5.5373157E-3,9.11836E-3,4.518098E-3,-1.9195427E-3,1.4329781E-2,1.336592E-2,8.622269E-3,1.1402901E-2,1.792111E-2],"split_indices":[18,18,18,18,12,12,19,18,12,19,8,12,14,1,18,0,0,0,0,0,0,0,0,0,0,0,0,0,0,0,0],"split_type":[0,0,0,0,0,0,0,0,0,0,0,0,0,0,0,0,0,0,0,0,0,0,0,0,0,0,0,0,0,0,0],"sum_hessian":[6.477E3,5.265E3,1.212E3,3.686E3,1.579E3,8.35E2,3.77E2,2.495E3,1.191E3,1.502E3,7.7E1,7.81E2,5.4E1,2.8E2,9.7E1,8.71E2,1.624E3,1.47E2,1.044E3,4.06E2,1.096E3,7E0,7E1,1.7E2,6.11E2,3E0,5.1E1,1.33E2,1.47E2,2.1E1,7.6E1],"tree_param":{"num_deleted":"0","num_feature":"20","num_nodes":"31","size_leaf_vector":"1"}},{"base_weights":[1.4743973E-4,-5.099814E-2,1.0553094E-1,-7.232572E-2,-1.4854592E-2,5.6507435E-2,1.9480911E-1,-8.970574E-2,-6.28876E-2,-2.2564342E-2,3.563268E-2,3.828834E-2,1.0609606E-1,1.2323763E-1,2.2168499E-1,-4.527024E-3,4.416854E-3,-1.6213255E-3,-3.356882E-3,8.9675013E-4,-1.7699173E-3,-1.7618902E-3,3.2951932E-3,-4.3940223E-3,2.1405339E-3,4.070326E-3,1.0306194E-2,1.0346742E-2,3.1020078E-3,1.3415473E-2,8.523868E-3],"categories":[],"categories_nodes":[],"categories_segments":[],"categories_sizes":[],"default_left":[0,0,0,0,0,0,0,0,0,0,0,0,0,0,0,0,0,0,0,0,0,0,0,0,0,0,0,0,0,0,0],"id":17,"left_children":[1,3,5,7,9,11,13,15,17,19,21,23,25,27,29,-1,-1,-1,-1,-1,-1,-1,-1,-1,-1,-1,-1,-1,-1,-1,-1],"loss_changes":[3.4921154E1,3.361392E0,9.254526E0,4.4430637E-1,6.313797E-1,1.2318702E0,1.4153404E0,1.5111732E-1,2.283926E-1,7.3142964E-1,4.6356896E-1,5.754808E-1,8.8957834E-1,1.0474279E0,1.2530746E0,0E0,0E0,0E0,0E0,0E0,0E0,0E0,0E0,0E0,0E0,0E0,0E0,0E0,0E0,0E0,0E0],"parents":[2147483647,0,0,1,1,2,2,3,3,4,4,5,5,6,6,7,7,8,8,9,9,10,10,11,11,12,12,13,13,14,14],"right_children":[2,4,6,8,10,12,14,16,18,20,22,24,26,28,30,-1,-1,-1,-1,-1,-1,-1,-1,-1,-1,-1,-1,-1,-1,-1,-1],"split_conditions":[2.6541555E-1,1.12600535E-1,5.4959786E-1,2.6809651E-2,9.829629E-1,3.994638E-1,3.7059048E-1,9.48821E-1,6.69873E-2,1.4644662E-1,5E-1,1.9615242E-1,9.829629E-1,2.909934E-1,4.4217888E-1,-4.527024E-3,4.416854E-3,-1.6213255E-3,-3.356882E-3,8.9675013E-4,-1.7699173E-3,-1.7618902E-3,3.2951932E-3,-4.3940223E-3,2.1405339E-3,4.070326E-3,1.0306194E-2,1.0346742E-2,3.1020078E-3,1.3415473E-2,8.523868E-3],"split_indices":[18,18,18,18,12,19,13,1,12,12,13,14,12,1,1,0,0,0,0,0,0,0,0,0,0,0,0,0,0,0,0],"split_type":[0,0,0,0,0,0,0,0,0,0,0,0,0,0,0,0,0,0,0,0,0,0,0,0,0,0,0,0,0,0,0],"sum_hessian":[6.477E3,4.361E3,2.116E3,2.742E3,1.619E3,1.367E3,7.49E2,9.62E2,1.78E3,1.405E3,2.14E2,1.001E3,3.66E2,2.06E2,5.43E2,9.58E2,4E0,2.19E2,1.561E3,3.38E2,1.067E3,6.4E1,1.5E2,3.4E1,9.67E2,2.95E2,7.1E1,8.6E1,1.2E2,2.82E2,2.61E2],"tree_param":{"num_deleted":"0","num_feature":"20","num_nodes":"31","size_leaf_vector":"1"}},{"base_weights":[1.4672145E-4,-3.5586648E-2,1.3692926E-1,-6.0423426E-2,1.7362649E-2,9.665806E-2,2.1627514E-1,-7.610451E-2,-4.0353954E-2,-8.70952E-3,3.9318696E-2,8.7027356E-2,2.3887666E-1,1.8742085E-1,3.0296916E-1,-4.2616655E-3,-3.2166054E-3,-2.2773622E-3,-2.6167443E-4,-7.29802E-4,4.4276086E-3,1.4697408E-3,4.6398067E-3,8.835301E-3,3.667873E-3,1.7880233E-2,8.412161E-3,7.451687E-3,1.2316713E-2,-2.4976588E-3,1.5331583E-2],"categories":[],"categories_nodes":[],"categories_segments":[],"categories_sizes":[],"default_left":[0,0,0,0,0,0,0,0,0,0,0,0,0,0,0,0,0,0,0,0,0,0,0,0,0,0,0,0,0,0,0],"id":18,"left_children":[1,3,5,7,9,11,13,15,17,19,21,23,25,27,29,-1,-1,-1,-1,-1,-1,-1,-1,-1,-1,-1,-1,-1,-1,-1,-1],"loss_changes":[3.1667402E1,6.756667E0,4.2672615E0,1.0974722E0,9.397193E-1,1.2009525E0,1.071392E0,2.05369E-1,2.7991366E-1,4.3126473E-1,4.7012925E-1,1.0131135E0,4.0946078E-1,7.344637E-1,1.587925E-1,0E0,0E0,0E0,0E0,0E0,0E0,0E0,0E0,0E0,0E0,0E0,0E0,0E0,0E0,0E0,0E0],"parents":[2147483647,0,0,1,1,2,2,3,3,4,4,5,5,6,6,7,7,8,8,9,9,10,10,11,11,12,12,13,13,14,14],"right_children":[2,4,6,8,10,12,14,16,18,20,22,24,26,28,30,-1,-1,-1,-1,-1,-1,-1,-1,-1,-1,-1,-1,-1,-1,-1,-1],"split_conditions":[3.6997318E-1,1.7426273E-1,7.211796E-1,6.434316E-2,2.2703348E-1,1E0,7.5603217E-1,5E-1,9.829629E-1,6.64282E-1,9.829629E-1,6.69873E-2,7.257761E-1,1E0,8.973933E-2,-4.2616655E-3,-3.2166054E-3,-2.2773622E-3,-2.6167443E-4,-7.29802E-4,4.4276086E-3,1.4697408E-3,4.6398067E-3,8.835301E-3,3.667873E-3,1.7880233E-2,8.412161E-3,7.451687E-3,1.2316713E-2,-2.4976588E-3,1.5331583E-2],"split_indices":[18,18,18,18,19,12,19,13,12,0,12,12,4,11,1,0,0,0,0,0,0,0,0,0,0,0,0,0,0,0,0],"split_type":[0,0,0,0,0,0,0,0,0,0,0,0,0,0,0,0,0,0,0,0,0,0,0,0,0,0,0,0,0,0,0],"sum_hessian":[6.477E3,5.136E3,1.341E3,3.496E3,1.64E3,8.91E2,4.5E2,1.961E3,1.535E3,7.5E2,8.9E2,8.36E2,5.5E1,3.4E2,1.1E2,1.101E3,8.6E2,1.337E3,1.98E2,7.08E2,4.2E1,7.52E2,1.38E2,1.09E2,7.27E2,1.9E1,3.6E1,2.08E2,1.32E2,1E0,1.09E2],"tree_param":{"num_deleted":"0","num_feature":"20","num_nodes":"31","size_leaf_vector":"1"}},{"base_weights":[1.5037601E-4,-3.1339344E-2,1.4068572E-1,-5.540457E-2,2.3893908E-2,1.0558389E-1,2.154389E-1,-7.059699E-2,-3.3916116E-2,1.862104E-2,1.2564482E-1,9.574833E-2,2.413265E-1,1.2486371E-1,2.3707607E-1,-4.0179947E-3,-2.9295967E-3,-3.04782E-3,-1.3619262E-3,-9.3484326E-4,1.5106484E-3,2.6833203E-3,1.1484302E-2,7.863669E-3,3.921929E-3,1.7653616E-2,9.46471E-3,8.53861E-3,-3.5077527E-3,7.865277E-3,1.2884639E-2],"categories":[],"categories_nodes":[],"categories_segments":[],"categories_sizes":[],"default_left":[0,0,0,0,0,0,0,0,0,0,0,0,0,0,0,0,0,0,0,0,0,0,0,0,0,0,0,0,0,0,0],"id":19,"left_children":[1,3,5,7,9,11,13,15,17,19,21,23,25,27,29,-1,-1,-1,-1,-1,-1,-1,-1,-1,-1,-1,-1,-1,-1,-1,-1],"loss_changes":[2.8672272E1,7.0367827E0,3.089285E0,1.2012701E0,8.5984665E-1,1.0569925E0,7.111988E-1,2.4833584E-1,2.7442205E-1,6.619895E-1,5.7928264E-1,7.9279137E-1,2.4714255E-1,6.8345666E-1,4.5942307E-1,0E0,0E0,0E0,0E0,0E0,0E0,0E0,0E0,0E0,0E0,0E0,0E0,0E0,0E0,0E0,0E0],"parents":[2147483647,0,0,1,1,2,2,3,3,4,4,5,5,6,6,7,7,8,8,9,9,10,10,11,11,12,12,13,13,14,14],"right_children":[2,4,6,8,10,12,14,16,18,20,22,24,26,28,30,-1,-1,-1,-1,-1,-1,-1,-1,-1,-1,-1,-1,-1,-1,-1,-1],"split_conditions":[4.075067E-1,1.930295E-1,7.8016084E-1,7.506702E-2,1E0,1E0,1.8230563E-1,5E-1,4.8257373E-2,1.3328578E-1,4.7184986E-1,1.4644662E-1,6.987927E-1,9.282032E-1,3.3705512E-1,-4.0179947E-3,-2.9295967E-3,-3.04782E-3,-1.3619262E-3,-9.3484326E-4,1.5106484E-3,2.6833203E-3,1.1484302E-2,7.863669E-3,3.921929E-3,1.7653616E-2,9.46471E-3,8.53861E-3,-3.5077527E-3,7.865277E-3,1.2884639E-2],"split_indices":[18,18,18,18,12,12,19,13,19,19,19,12,4,14,6,0,0,0,0,0,0,0,0,0,0,0,0,0,0,0,0],"split_type":[0,0,0,0,0,0,0,0,0,0,0,0,0,0,0,0,0,0,0,0,0,0,0,0,0,0,0,0,0,0,0],"sum_hessian":[6.477E3,5.292E3,1.185E3,3.686E3,1.606E3,8.08E2,3.77E2,2.158E3,1.528E3,1.528E3,7.8E1,7.55E2,5.3E1,7.4E1,3.03E2,1.187E3,9.71E2,3.01E2,1.227E3,3.62E2,1.166E3,4.7E1,3.1E1,1.64E2,5.91E2,1.5E1,3.8E1,6E1,1.4E1,6.4E1,2.39E2],"tree_param":{"num_deleted":"0","num_feature":"20","num_nodes":"31","size_leaf_vector":"1"}},{"base_weights":[1.5336547E-4,-4.0669724E-2,9.853693E-2,-6.163988E-2,-7.201361E-3,5.2778397E-2,1.6862963E-1,-7.767617E-2,-5.327259E-2,-1.2113363E-2,9.506932E-2,-2.62489E-2,6.174594E-2,7.437545E-2,1.8628712E-1,-3.9236196E-3,4.528697E-3,-1.1985676E-3,-2.865374E-3,2.030103E-3,-1.0049411E-3,2.6372268E-3,1.2565352E-2,1.2080728E-3,-4.764511E-3,2.6011073E-3,6.38989E-3,5.4359E-3,-6.3136085E-3,7.785402E-3,1.1723611E-2],"categories":[],"categories_nodes":[],"categories_segments":[],"categories_sizes":[],"default_left":[0,0,0,0,0,0,0,0,0,0,0,0,0,0,0,0,0,0,0,0,0,0,0,0,0,0,0,0,0,0,0],"id":20,"left_children":[1,3,5,7,9,11,13,15,17,19,21,23,25,27,29,-1,-1,-1,-1,-1,-1,-1,-1,-1,-1,-1,-1,-1,-1,-1,-1],"loss_changes":[2.6021736E1,3.213266E0,6.085043E0,3.7357998E-1,8.87806E-1,8.1731224E-1,1.2343636E0,1.3611412E-1,2.1770144E-1,7.101282E-1,5.223758E-1,4.1298923E-1,6.5746427E-1,8.4061795E-1,8.932438E-1,0E0,0E0,0E0,0E0,0E0,0E0,0E0,0E0,0E0,0E0,0E0,0E0,0E0,0E0,0E0,0E0],"parents":[2147483647,0,0,1,1,2,2,3,3,4,4,5,5,6,6,7,7,8,8,9,9,10,10,11,11,12,12,13,13,14,14],"right_children":[2,4,6,8,10,12,14,16,18,20,22,24,26,28,30,-1,-1,-1,-1,-1,-1,-1,-1,-1,-1,-1,-1,-1,-1,-1,-1],"split_conditions":[2.922252E-1,1.17962465E-1,5.4959786E-1,2.6809651E-2,1E0,7.7747986E-2,1.2516756E-1,9.48821E-1,6.69873E-2,6.69873E-2,2.600536E-1,8.535534E-1,9.829629E-1,9.282032E-1,8.6863273E-1,-3.9236196E-3,4.528697E-3,-1.1985676E-3,-2.865374E-3,2.030103E-3,-1.0049411E-3,2.6372268E-3,1.2565352E-2,1.2080728E-3,-4.764511E-3,2.6011073E-3,6.38989E-3,5.4359E-3,-6.3136085E-3,7.785402E-3,1.1723611E-2],"split_indices":[18,18,18,18,12,19,19,1,12,12,18,12,12,14,18,0,0,0,0,0,0,0,0,0,0,0,0,0,0,0,0],"split_type":[0,0,0,0,0,0,0,0,0,0,0,0,0,0,0,0,0,0,0,0,0,0,0,0,0,0,0,0,0,0,0],"sum_hessian":[6.477E3,4.578E3,1.899E3,2.814E3,1.764E3,1.15E3,7.49E2,9.62E2,1.852E3,1.684E3,8E1,1.17E2,1.033E3,1.19E2,6.3E2,9.58E2,4E0,2.25E2,1.627E3,2.21E2,1.463E3,6.4E1,1.6E1,6.8E1,4.9E1,9.02E2,1.31E2,1.02E2,1.7E1,3.88E2,2.42E2],"tree_param":{"num_deleted":"0","num_feature":"20","num_nodes":"31","size_leaf_vector":"1"}},{"base_weights":[1.5137946E-4,-3.331736E-2,1.0878213E-1,-5.5957224E-2,4.263492E-3,6.725367E-2,1.727623E-1,-6.790079E-2,-4.2358343E-2,-3.952806E-3,5.6804795E-2,2.1408264E-2,8.655747E-2,1.0193677E-1,2.0239502E-1,-2.4300897E-3,-3.7023367E-3,-2.3774514E-3,-2.880416E-4,4.7445484E-3,-4.452646E-4,1.3520601E-3,7.5798803E-3,-3.9073057E-3,2.27098E-3,5.9619844E-3,2.5607075E-3,8.705915E-3,2.2869878E-3,1.1662459E-2,6.4852308E-3],"categories":[],"categories_nodes":[],"categories_segments":[],"categories_sizes":[],"default_left":[0,0,0,0,0,0,0,0,0,0,0,0,0,0,0,0,0,0,0,0,0,0,0,0,0,0,0,0,0,0,0],"id":21,"left_children":[1,3,5,7,9,11,13,15,17,19,21,23,25,27,29,-1,-1,-1,-1,-1,-1,-1,-1,-1,-1,-1,-1,-1,-1,-1,-1],"loss_changes":[2.3555912E1,4.2143755E0,4.042959E0,4.9916172E-1,8.0447227E-1,8.1853294E-1,1.2386208E0,1.9139671E-1,2.747972E-1,7.8995514E-1,7.0688707E-1,6.6330904E-1,7.470169E-1,7.1812904E-1,9.1620827E-1,0E0,0E0,0E0,0E0,0E0,0E0,0E0,0E0,0E0,0E0,0E0,0E0,0E0,0E0,0E0,0E0],"parents":[2147483647,0,0,1,1,2,2,3,3,4,4,5,5,6,6,7,7,8,8,9,9,10,10,11,11,12,12,13,13,14,14],"right_children":[2,4,6,8,10,12,14,16,18,20,22,24,26,28,30,-1,-1,-1,-1,-1,-1,-1,-1,-1,-1,-1,-1,-1,-1,-1,-1],"split_conditions":[3.3800784E-1,1.3941018E-1,6.219839E-1,5.0938338E-2,9.829629E-1,3.7059048E-1,3.7059048E-1,1.4644662E-1,9.829629E-1,1.7037086E-2,5.0266534E-1,1.17962465E-1,8.535534E-1,2.909934E-1,6.1125505E-1,-2.4300897E-3,-3.7023367E-3,-2.3774514E-3,-2.880416E-4,4.7445484E-3,-4.452646E-4,1.3520601E-3,7.5798803E-3,-3.9073057E-3,2.27098E-3,5.9619844E-3,2.5607075E-3,8.705915E-3,2.2869878E-3,1.1662459E-2,6.4852308E-3],"split_indices":[18,18,18,18,12,13,13,12,12,12,6,19,13,1,1,0,0,0,0,0,0,0,0,0,0,0,0,0,0,0,0],"split_type":[0,0,0,0,0,0,0,0,0,0,0,0,0,0,0,0,0,0,0,0,0,0,0,0,0,0,0,0,0,0,0],"sum_hessian":[6.477E3,4.952E3,1.525E3,3.09E3,1.862E3,9.26E2,5.99E2,1.643E3,1.447E3,1.611E3,2.51E2,2.75E2,6.51E2,1.78E2,4.21E2,3.99E2,1.244E3,1.267E3,1.8E2,7.6E1,1.535E3,1.92E2,5.9E1,5.3E1,2.22E2,3.37E2,3.14E2,7.7E1,1.01E2,2.94E2,1.27E2],"tree_param":{"num_deleted":"0","num_feature":"20","num_nodes":"31","size_leaf_vector":"1"}},{"base_weights":[1.5005599E-4,-4.0732425E-2,8.110632E-2,-5.8472484E-2,-1.6246276E-2,4.3399405E-2,1.5264133E-1,-6.7719534E-2,-4.7951512E-2,-2.2408368E-2,2.4352282E-2,3.683675E-2,1.6443871E-1,8.95966E-2,1.7635018E-1,-4.1852E-3,-3.129689E-3,-1.1203366E-3,-2.9861627E-3,6.87514E-4,-1.6953504E-3,-1.5251403E-3,2.339821E-3,-1.2586754E-3,2.255774E-3,1.2117021E-2,-7.724673E-4,8.41981E-5,6.677036E-3,7.4419626E-3,1.1987085E-2],"categories":[],"categories_nodes":[],"categories_segments":[],"categories_sizes":[],"default_left":[0,0,0,0,0,0,0,0,0,0,0,0,0,0,0,0,0,0,0,0,0,0,0,0,0,0,0,0,0,0,0],"id":22,"left_children":[1,3,5,7,9,11,13,15,17,19,21,23,25,27,29,-1,-1,-1,-1,-1,-1,-1,-1,-1,-1,-1,-1,-1,-1,-1,-1],"loss_changes":[2.1443495E1,1.869081E0,5.8574457E0,2.3958302E-1,4.5335716E-1,1.1258755E0,1.1052399E0,1.0340357E-1,3.5078907E-1,6.54065E-1,2.956783E-1,6.957203E-1,1.0267354E0,7.994666E-1,9.130306E-1,0E0,0E0,0E0,0E0,0E0,0E0,0E0,0E0,0E0,0E0,0E0,0E0,0E0,0E0,0E0,0E0],"parents":[2147483647,0,0,1,1,2,2,3,3,4,4,5,5,6,6,7,7,8,8,9,9,10,10,11,11,12,12,13,13,14,14],"right_children":[2,4,6,8,10,12,14,16,18,20,22,24,26,28,30,-1,-1,-1,-1,-1,-1,-1,-1,-1,-1,-1,-1,-1,-1,-1,-1],"split_conditions":[2.600536E-1,9.651475E-2,5.4959786E-1,5E-1,9.829629E-1,1E0,3.7059048E-1,1.3404826E-2,7.5E-1,1.4644662E-1,5E-1,7.7747986E-2,7.114353E-1,2.1179625E-1,9.5174265E-1,-4.1852E-3,-3.129689E-3,-1.1203366E-3,-2.9861627E-3,6.87514E-4,-1.6953504E-3,-1.5251403E-3,2.339821E-3,-1.2586754E-3,2.255774E-3,1.2117021E-2,-7.724673E-4,8.41981E-5,6.677036E-3,7.4419626E-3,1.1987085E-2],"split_indices":[18,18,18,13,12,12,13,18,13,12,13,19,5,19,18,0,0,0,0,0,0,0,0,0,0,0,0,0,0,0,0],"split_type":[0,0,0,0,0,0,0,0,0,0,0,0,0,0,0,0,0,0,0,0,0,0,0,0,0,0,0,0,0,0,0],"sum_hessian":[6.477E3,4.304E3,2.173E3,2.495E3,1.809E3,1.424E3,7.49E2,1.325E3,1.17E3,1.571E3,2.38E2,1.352E3,7.2E1,2.06E2,5.43E2,3.18E2,1.007E3,3.7E2,8E2,3.79E2,1.192E3,6.9E1,1.69E2,1.59E2,1.193E3,5E1,2.2E1,6.9E1,1.37E2,3.81E2,1.62E2],"tree_param":{"num_deleted":"0","num_feature":"20","num_nodes":"31","size_leaf_vector":"1"}},{"base_weights":[1.4671097E-4,-2.5754603E-2,1.15741566E-1,-4.5602415E-2,1.9799005E-2,8.670291E-2,1.7758425E-1,-5.933838E-2,-2.996188E-2,7.2885146E-3,5.234921E-2,7.792369E-2,2.0800635E-1,1.5250367E-1,2.4768688E-1,-2.3040667E-3,-3.2794327E-3,2.2220197E-4,-1.737833E-3,1.4443503E-4,4.265157E-3,1.6599324E-3,6.785204E-3,2.6876677E-3,5.7652052E-3,1.5774155E-2,7.928993E-3,2.1463416E-3,8.421478E-3,7.8014024E-3,1.3532921E-2],"categories":[],"categories_nodes":[],"categories_segments":[],"categories_sizes":[],"default_left":[0,0,0,0,0,0,0,0,0,0,0,0,0,0,0,0,0,0,0,0,0,0,0,0,0,0,0,0,0,0,0],"id":23,"left_children":[1,3,5,7,9,11,13,15,17,19,21,23,25,27,29,-1,-1,-1,-1,-1,-1,-1,-1,-1,-1,-1,-1,-1,-1,-1,-1],"loss_changes":[1.9398493E1,4.7865133E0,2.1144552E0,7.90329E-1,6.540195E-1,8.45335E-1,6.2683105E-1,1.5954924E-1,2.8489077E-1,3.9860988E-1,7.074412E-1,6.76846E-1,2.3682952E-1,4.8314476E-1,1.6411304E-1,0E0,0E0,0E0,0E0,0E0,0E0,0E0,0E0,0E0,0E0,0E0,0E0,0E0,0E0,0E0,0E0],"parents":[2147483647,0,0,1,1,2,2,3,3,4,4,5,5,6,6,7,7,8,8,9,9,10,10,11,11,12,12,13,13,14,14],"right_children":[2,4,6,8,10,12,14,16,18,20,22,24,26,28,30,-1,-1,-1,-1,-1,-1,-1,-1,-1,-1,-1,-1,-1,-1,-1,-1],"split_conditions":[4.075067E-1,1.930295E-1,7.8016084E-1,6.434316E-2,3.4852546E-1,1E0,7.5603217E-1,3.8370423E-2,6.69873E-2,6.761577E-1,9.829629E-1,4.1823056E-1,6.987927E-1,2.463212E-1,8.44504E-1,-2.3040667E-3,-3.2794327E-3,2.2220197E-4,-1.737833E-3,1.4443503E-4,4.265157E-3,1.6599324E-3,6.785204E-3,2.6876677E-3,5.7652052E-3,1.5774155E-2,7.928993E-3,2.1463416E-3,8.421478E-3,7.8014024E-3,1.3532921E-2],"split_indices":[18,18,18,18,19,12,19,0,12,0,12,19,4,6,18,0,0,0,0,0,0,0,0,0,0,0,0,0,0,0,0],"split_type":[0,0,0,0,0,0,0,0,0,0,0,0,0,0,0,0,0,0,0,0,0,0,0,0,0,0,0,0,0,0,0],"sum_hessian":[6.477E3,5.292E3,1.185E3,3.686E3,1.606E3,8.08E2,3.77E2,1.961E3,1.725E3,1.161E3,4.45E2,7.55E2,5.3E1,2.8E2,9.7E1,6.31E2,1.33E3,2.11E2,1.514E3,1.1E3,6.1E1,3.63E2,8.2E1,4.6E2,2.95E2,1.5E1,3.8E1,3.6E1,2.44E2,2.1E1,7.6E1],"tree_param":{"num_deleted":"0","num_feature":"20","num_nodes":"31","size_leaf_vector":"1"}},{"base_weights":[1.5015382E-4,-3.688374E-2,7.3485374E-2,-5.2901965E-2,-1.4774143E-2,3.3965673E-2,1.3024579E-1,-6.1633844E-2,-4.2969108E-2,5.3652883E-2,-1.8093828E-2,2.7035749E-2,1.5550034E-1,6.975857E-2,1.5395363E-1,-3.8316369E-3,-2.8413013E-3,-1.272548E-3,-2.9382638E-3,4.509872E-3,-2.0733369E-3,-1.2348994E-3,1.1563309E-3,3.4693766E-3,8.215449E-4,1.1886408E-2,-9.645647E-4,-1.1038253E-3,5.250369E-3,9.649898E-3,5.763884E-3],"categories":[],"categories_nodes":[],"categories_segments":[],"categories_sizes":[],"default_left":[0,0,0,0,0,0,0,0,0,0,0,0,0,0,0,0,0,0,0,0,0,0,0,0,0,0,0,0,0,0,0],"id":24,"left_children":[1,3,5,7,9,11,13,15,17,19,21,23,25,27,29,-1,-1,-1,-1,-1,-1,-1,-1,-1,-1,-1,-1,-1,-1,-1,-1],"loss_changes":[1.7596237E1,1.5238619E0,4.8721933E0,2.1383572E-1,4.1212344E-1,1.0763718E0,1.2684078E0,9.1266155E-2,3.2254267E-1,2.9573298E-1,4.707061E-1,5.4455805E-1,9.963045E-1,8.212985E-1,9.4419956E-1,0E0,0E0,0E0,0E0,0E0,0E0,0E0,0E0,0E0,0E0,0E0,0E0,0E0,0E0,0E0,0E0],"parents":[2147483647,0,0,1,1,2,2,3,3,4,4,5,5,6,6,7,7,8,8,9,9,10,10,11,11,12,12,13,13,14,14],"right_children":[2,4,6,8,10,12,14,16,18,20,22,24,26,28,30,-1,-1,-1,-1,-1,-1,-1,-1,-1,-1,-1,-1,-1,-1,-1,-1],"split_conditions":[2.600536E-1,9.651475E-2,4.9865952E-1,5E-1,1.7037086E-2,1E0,3.7059048E-1,1.3404826E-2,8.535534E-1,5.705266E-1,9.829629E-1,1.4644662E-1,7.114353E-1,1.8230563E-1,4.4217888E-1,-3.8316369E-3,-2.8413013E-3,-1.272548E-3,-2.9382638E-3,4.509872E-3,-2.0733369E-3,-1.2348994E-3,1.1563309E-3,3.4693766E-3,8.215449E-4,1.1886408E-2,-9.645647E-4,-1.1038253E-3,5.250369E-3,9.649898E-3,5.763884E-3],"split_indices":[18,18,18,13,12,12,13,18,13,9,12,12,5,19,1,0,0,0,0,0,0,0,0,0,0,0,0,0,0,0,0],"split_type":[0,0,0,0,0,0,0,0,0,0,0,0,0,0,0,0,0,0,0,0,0,0,0,0,0,0,0,0,0,0,0],"sum_hessian":[6.477E3,4.304E3,2.173E3,2.495E3,1.809E3,1.282E3,8.91E2,1.325E3,1.17E3,8.3E1,1.726E3,1.214E3,6.8E1,2.52E2,6.39E2,3.18E2,1.007E3,5.56E2,6.14E2,6E1,2.3E1,1.488E3,2.38E2,2.42E2,9.72E2,4.6E1,2.2E1,7E1,1.82E2,3.16E2,3.23E2],"tree_param":{"num_deleted":"0","num_feature":"20","num_nodes":"31","size_leaf_vector":"1"}},{"base_weights":[1.4670119E-4,-3.1775955E-2,7.708022E-2,-4.8074953E-2,-5.762662E-3,4.682445E-2,1.4255635E-1,-5.7714086E-2,-3.7981234E-2,-9.866495E-3,7.967834E-2,-2.32116E-2,5.4886185E-2,3.3804305E-2,1.5662432E-1,-3.6406554E-3,-2.6681013E-3,-5.64492E-4,-2.5058573E-3,1.2099843E-3,-9.685329E-4,2.2349807E-3,1.1530238E-2,6.841805E-3,-2.2178933E-3,2.2039078E-3,6.0126623E-3,-1.2784778E-3,9.175872E-3,4.973427E-3,9.017578E-3],"categories":[],"categories_nodes":[],"categories_segments":[],"categories_sizes":[],"default_left":[0,0,0,0,0,0,0,0,0,0,0,0,0,0,0,0,0,0,0,0,0,0,0,0,0,0,0,0,0,0,0],"id":25,"left_children":[1,3,5,7,9,11,13,15,17,19,21,23,25,27,29,-1,-1,-1,-1,-1,-1,-1,-1,-1,-1,-1,-1,-1,-1,-1,-1],"loss_changes":[1.5911915E1,1.9411764E0,3.7572842E0,2.7169275E-1,6.19658E-1,7.358341E-1,9.1265774E-1,9.060764E-2,4.4580173E-1,5.460221E-1,4.1730833E-1,4.6296525E-1,8.1917167E-1,6.269257E-1,7.0217514E-1,0E0,0E0,0E0,0E0,0E0,0E0,0E0,0E0,0E0,0E0,0E0,0E0,0E0,0E0,0E0,0E0],"parents":[2147483647,0,0,1,1,2,2,3,3,4,4,5,5,6,6,7,7,8,8,9,9,10,10,11,11,12,12,13,13,14,14],"right_children":[2,4,6,8,10,12,14,16,18,20,22,24,26,28,30,-1,-1,-1,-1,-1,-1,-1,-1,-1,-1,-1,-1,-1,-1,-1,-1],"split_conditions":[2.922252E-1,1.17962465E-1,6.219839E-1,5E-1,1E0,7.7747986E-2,2.463212E-1,1.3404826E-2,7.5E-1,1.4644662E-1,5.0266534E-1,6.69873E-2,9.829629E-1,9.0400594E-1,3.7059048E-1,-3.6406554E-3,-2.6681013E-3,-5.64492E-4,-2.5058573E-3,1.2099843E-3,-9.685329E-4,2.2349807E-3,1.1530238E-2,6.841805E-3,-2.2178933E-3,2.2039078E-3,6.0126623E-3,-1.2784778E-3,9.175872E-3,4.973427E-3,9.017578E-3],"split_indices":[18,18,18,13,12,19,6,18,13,12,6,12,12,10,13,0,0,0,0,0,0,0,0,0,0,0,0,0,0,0,0],"split_type":[0,0,0,0,0,0,0,0,0,0,0,0,0,0,0,0,0,0,0,0,0,0,0,0,0,0,0,0,0,0,0],"sum_hessian":[6.477E3,4.578E3,1.899E3,2.814E3,1.764E3,1.3E3,5.99E2,1.437E3,1.377E3,1.684E3,8E1,1.34E2,1.166E3,6.9E1,5.3E2,3.18E2,1.119E3,4.31E2,9.46E2,3.67E2,1.317E3,6.6E1,1.4E1,1.5E1,1.19E2,1.002E3,1.64E2,5E1,1.9E1,1.57E2,3.73E2],"tree_param":{"num_deleted":"0","num_feature":"20","num_nodes":"31","size_leaf_vector":"1"}},{"base_weights":[1.4543982E-4,-2.219563E-2,9.985129E-2,-3.9367206E-2,1.7215567E-2,7.299257E-2,1.5244618E-1,-5.120701E-2,-2.5885709E-2,5.766712E-3,4.7005598E-2,2.4681108E-2,9.1812626E-2,9.377105E-2,1.7877571E-1,-1.9288262E-3,-2.858294E-3,-1.6602408E-3,-2.6837437E-4,8.292843E-5,3.931319E-3,1.488131E-3,6.102954E-3,3.9435695E-3,-2.4296483E-3,6.4568007E-3,2.4313896E-3,5.5368934E-3,-6.9550886E-3,9.180594E-3,-5.9550144E-3],"categories":[],"categories_nodes":[],"categories_segments":[],"categories_sizes":[],"default_left":[0,0,0,0,0,0,0,0,0,0,0,0,0,0,0,0,0,0,0,0,0,0,0,0,0,0,0,0,0,0,0],"id":26,"left_children":[1,3,5,7,9,11,13,15,17,19,21,23,25,27,29,-1,-1,-1,-1,-1,-1,-1,-1,-1,-1,-1,-1,-1,-1,-1,-1],"loss_changes":[1.443219E1,3.5827277E0,1.6642523E0,5.871873E-1,5.478152E-1,7.1329355E-1,6.011925E-1,1.4546108E-1,2.5902402E-1,3.4767705E-1,5.7355607E-1,8.853374E-1,9.0600157E-1,5.132439E-1,4.1802788E-1,0E0,0E0,0E0,0E0,0E0,0E0,0E0,0E0,0E0,0E0,0E0,0E0,0E0,0E0,0E0,0E0],"parents":[2147483647,0,0,1,1,2,2,3,3,4,4,5,5,6,6,7,7,8,8,9,9,10,10,11,11,12,12,13,13,14,14],"right_children":[2,4,6,8,10,12,14,16,18,20,22,24,26,28,30,-1,-1,-1,-1,-1,-1,-1,-1,-1,-1,-1,-1,-1,-1,-1,-1],"split_conditions":[4.075067E-1,1.930295E-1,7.587131E-1,6.434316E-2,3.4852546E-1,3.7059048E-1,3.819681E-1,3.8370423E-2,2.30563E-1,6.761577E-1,9.829629E-1,8.535534E-1,8.535534E-1,8.314493E-1,1E0,-1.9288262E-3,-2.858294E-3,-1.6602408E-3,-2.6837437E-4,8.292843E-5,3.931319E-3,1.488131E-3,6.102954E-3,3.9435695E-3,-2.4296483E-3,6.4568007E-3,2.4313896E-3,5.5368934E-3,-6.9550886E-3,9.180594E-3,-5.9550144E-3],"split_indices":[18,18,18,18,19,13,6,0,19,0,12,12,13,2,14,0,0,0,0,0,0,0,0,0,0,0,0,0,0,0,0],"split_type":[0,0,0,0,0,0,0,0,0,0,0,0,0,0,0,0,0,0,0,0,0,0,0,0,0,0,0,0,0,0,0],"sum_hessian":[6.477E3,5.292E3,1.185E3,3.686E3,1.606E3,7.86E2,3.99E2,1.961E3,1.725E3,1.161E3,4.45E2,2.21E2,5.65E2,1.25E2,2.74E2,6.31E2,1.33E3,1.271E3,4.54E2,1.1E3,6.1E1,3.63E2,8.2E1,1.27E2,9.4E1,3.02E2,2.63E2,1.17E2,8E0,2.7E2,4E0],"tree_param":{"num_deleted":"0","num_feature":"20","num_nodes":"31","size_leaf_vector":"1"}},{"base_weights":[1.4080692E-4,-1.7849771E-2,1.12823784E-1,-3.7400663E-2,2.0078685E-2,5.906435E-2,1.3389927E-1,-4.8649095E-2,-2.4592541E-2,1.5240277E-2,1.06156856E-1,1.1783177E-1,1.0788992E-2,1.1299621E-1,1.9437635E-1,-1.8325374E-3,-2.7154868E-3,-2.3928385E-3,-9.202409E-4,3.141714E-3,4.1855103E-4,7.7288123E-3,-4.0817863E-4,7.097321E-3,8.1250165E-4,4.9614892E-3,-1.4719855E-3,7.4338997E-3,3.3952687E-3,1.0153176E-2,-1.0085215E-2],"categories":[],"categories_nodes":[],"categories_segments":[],"categories_sizes":[],"default_left":[0,0,0,0,0,0,0,0,0,0,0,0,0,0,0,0,0,0,0,0,0,0,0,0,0,0,0,0,0,0,0],"id":27,"left_children":[1,3,5,7,9,11,13,15,17,19,21,23,25,27,29,-1,-1,-1,-1,-1,-1,-1,-1,-1,-1,-1,-1,-1,-1,-1,-1],"loss_changes":[1.3134422E1,4.143708E0,1.0027323E0,5.2999496E-1,7.901132E-1,7.164944E-1,7.87096E-1,1.3126469E-1,2.4758136E-1,5.8828473E-1,5.603297E-1,2.769488E-1,5.0102144E-1,7.5896883E-1,6.018119E-1,0E0,0E0,0E0,0E0,0E0,0E0,0E0,0E0,0E0,0E0,0E0,0E0,0E0,0E0,0E0,0E0],"parents":[2147483647,0,0,1,1,2,2,3,3,4,4,5,5,6,6,7,7,8,8,9,9,10,10,11,11,12,12,13,13,14,14],"right_children":[2,4,6,8,10,12,14,16,18,20,22,24,26,28,30,-1,-1,-1,-1,-1,-1,-1,-1,-1,-1,-1,-1,-1,-1,-1,-1],"split_conditions":[4.9865952E-1,1.930295E-1,3.7059048E-1,6.434316E-2,1E0,3.115669E-1,9.5174265E-1,3.8370423E-2,4.8257373E-2,6.69873E-2,7.114353E-1,7.0535773E-1,1.8272674E-1,8.535534E-1,1E0,-1.8325374E-3,-2.7154868E-3,-2.3928385E-3,-9.202409E-4,3.141714E-3,4.1855103E-4,7.7288123E-3,-4.0817863E-4,7.097321E-3,8.1250165E-4,4.9614892E-3,-1.4719855E-3,7.4338997E-3,3.3952687E-3,1.0153176E-2,-1.0085215E-2],"split_indices":[18,18,13,18,12,1,18,0,19,12,5,4,0,13,14,0,0,0,0,0,0,0,0,0,0,0,0,0,0,0,0],"split_type":[0,0,0,0,0,0,0,0,0,0,0,0,0,0,0,0,0,0,0,0,0,0,0,0,0,0,0,0,0,0,0],"sum_hessian":[6.477E3,5.586E3,8.91E2,3.686E3,1.9E3,2.52E2,6.39E2,1.961E3,1.725E3,1.8E3,1E2,1.13E2,1.39E2,4.77E2,1.62E2,6.31E2,1.33E3,3.61E2,1.364E3,2.26E2,1.574E3,7E1,3E1,9.1E1,2.2E1,4.3E1,9.6E1,2.65E2,2.12E2,1.59E2,3E0],"tree_param":{"num_deleted":"0","num_feature":"20","num_nodes":"31","size_leaf_vector":"1"}},{"base_weights":[1.3767614E-4,-2.9760087E-2,6.1740845E-2,-4.2795554E-2,-1.0791337E-2,2.8610269E-2,1.072076E-1,-5.477556E-2,-3.667574E-2,-1.3922291E-2,5.4135736E-2,2.3402434E-2,1.2127019E-1,3.4237225E-2,1.2167719E-1,-2.7806198E-3,5.0726905E-3,-2.1765877E-3,-1.2579944E-3,7.118891E-4,-1.0851742E-3,1.838777E-4,7.3112804E-3,-9.130151E-4,1.6146655E-3,9.887612E-3,-1.3495317E-3,2.9996985E-3,-6.744674E-3,5.002864E-3,8.2919905E-3],"categories":[],"categories_nodes":[],"categories_segments":[],"categories_sizes":[],"default_left":[0,0,0,0,0,0,0,0,0,0,0,0,0,0,0,0,0,0,0,0,0,0,0,0,0,0,0,0,0,0,0],"id":28,"left_children":[1,3,5,7,9,11,13,15,17,19,21,23,25,27,29,-1,-1,-1,-1,-1,-1,-1,-1,-1,-1,-1,-1,-1,-1,-1,-1],"loss_changes":[1.1932998E1,1.0781147E0,3.185854E0,1.8751144E-1,3.6219203E-1,5.8877766E-1,9.3765354E-1,1.19645596E-1,1.342299E-1,3.721538E-1,3.804906E-1,4.3101567E-1,7.4239147E-1,6.5717506E-1,6.937723E-1,0E0,0E0,0E0,0E0,0E0,0E0,0E0,0E0,0E0,0E0,0E0,0E0,0E0,0E0,0E0,0E0],"parents":[2147483647,0,0,1,1,2,2,3,3,4,4,5,5,6,6,7,7,8,8,9,9,10,10,11,11,12,12,13,13,14,14],"right_children":[2,4,6,8,10,12,14,16,18,20,22,24,26,28,30,-1,-1,-1,-1,-1,-1,-1,-1,-1,-1,-1,-1,-1,-1,-1,-1],"split_conditions":[2.6541555E-1,1.01876676E-1,4.9865952E-1,2.4128687E-2,1E0,1E0,1.2516756E-1,9.48821E-1,1.12600535E-1,1.4644662E-1,8.390759E-1,2.9806107E-1,7.114353E-1,9.282032E-1,8.6863273E-1,-2.7806198E-3,5.0726905E-3,-2.1765877E-3,-1.2579944E-3,7.118891E-4,-1.0851742E-3,1.838777E-4,7.3112804E-3,-9.130151E-4,1.6146655E-3,9.887612E-3,-1.3495317E-3,2.9996985E-3,-6.744674E-3,5.002864E-3,8.2919905E-3],"split_indices":[18,18,18,18,12,12,19,1,19,12,9,6,5,14,18,0,0,0,0,0,0,0,0,0,0,0,0,0,0,0,0],"split_type":[0,0,0,0,0,0,0,0,0,0,0,0,0,0,0,0,0,0,0,0,0,0,0,0,0,0,0,0,0,0,0],"sum_hessian":[6.477E3,4.361E3,2.116E3,2.584E3,1.777E3,1.225E3,8.91E2,8.71E2,1.713E3,1.696E3,8.1E1,1.161E3,6.4E1,1.48E2,7.43E2,8.67E2,4E0,1.072E3,6.41E2,3.67E2,1.329E3,5.3E1,2.8E1,2.04E2,9.57E2,4.2E1,2.2E1,1.29E2,1.9E1,5.01E2,2.42E2],"tree_param":{"num_deleted":"0","num_feature":"20","num_nodes":"31","size_leaf_vector":"1"}},{"base_weights":[1.346165E-4,-2.8846383E-2,5.7523333E-2,-3.9379783E-2,-8.940034E-3,2.6655072E-2,1.0185792E-1,-4.8188012E-2,-3.0159455E-2,-1.2387266E-2,4.8226986E-2,2.0947337E-2,1.2677455E-1,5.100998E-2,1.21799596E-1,-1.5130219E-3,-2.5589028E-3,-2.570632E-4,-2.077017E-3,8.404242E-4,-1.0481434E-3,1.3932134E-2,1.8199532E-3,-4.7404235E-3,1.202909E-3,9.934615E-3,-1.284989E-3,-1.5143737E-3,4.113644E-3,7.797777E-3,4.4002836E-3],"categories":[],"categories_nodes":[],"categories_segments":[],"categories_sizes":[],"default_left":[0,0,0,0,0,0,0,0,0,0,0,0,0,0,0,0,0,0,0,0,0,0,0,0,0,0,0,0,0,0,0],"id":29,"left_children":[1,3,5,7,9,11,13,15,17,19,21,23,25,27,29,-1,-1,-1,-1,-1,-1,-1,-1,-1,-1,-1,-1,-1,-1,-1,-1],"loss_changes":[1.0775754E1,9.0232706E-1,2.9724712E0,2.2716618E-1,2.9442585E-1,7.3052174E-1,8.9826965E-1,7.553458E-2,3.9214325E-1,3.5262442E-1,2.2151154E-1,4.398002E-1,7.6173353E-1,6.4551497E-1,7.2500324E-1,0E0,0E0,0E0,0E0,0E0,0E0,0E0,0E0,0E0,0E0,0E0,0E0,0E0,0E0,0E0,0E0],"parents":[2147483647,0,0,1,1,2,2,3,3,4,4,5,5,6,6,7,7,8,8,9,9,10,10,11,11,12,12,13,13,14,14],"right_children":[2,4,6,8,10,12,14,16,18,20,22,24,26,28,30,-1,-1,-1,-1,-1,-1,-1,-1,-1,-1,-1,-1,-1,-1,-1,-1],"split_conditions":[2.600536E-1,1.17962465E-1,4.9865952E-1,5E-1,8.27442E-1,1E0,3.7059048E-1,5E-1,7.5E-1,1.4644662E-1,1.2064343E-1,1.9615242E-1,7.114353E-1,1.8230563E-1,4.4217888E-1,-1.5130219E-3,-2.5589028E-3,-2.570632E-4,-2.077017E-3,8.404242E-4,-1.0481434E-3,1.3932134E-2,1.8199532E-3,-4.7404235E-3,1.202909E-3,9.934615E-3,-1.284989E-3,-1.5143737E-3,4.113644E-3,7.797777E-3,4.4002836E-3],"split_indices":[18,18,18,13,4,12,13,15,13,12,18,14,5,19,1,0,0,0,0,0,0,0,0,0,0,0,0,0,0,0,0],"split_type":[0,0,0,0,0,0,0,0,0,0,0,0,0,0,0,0,0,0,0,0,0,0,0,0,0,0,0,0,0,0,0],"sum_hessian":[6.477E3,4.304E3,2.173E3,2.814E3,1.49E3,1.282E3,8.91E2,1.437E3,1.377E3,1.406E3,8.4E1,1.214E3,6.8E1,2.52E2,6.39E2,2.07E2,1.23E3,4.31E2,9.46E2,3.19E2,1.087E3,3E0,8.1E1,3.1E1,1.183E3,4.6E1,2.2E1,7E1,1.82E2,3.16E2,3.23E2],"tree_param":{"num_deleted":"0","num_feature":"20","num_nodes":"31","size_leaf_vector":"1"}},{"base_weights":[1.3236883E-4,-2.4857588E-2,6.0358096E-2,-3.613064E-2,-2.324727E-3,3.6396902E-2,1.1221335E-1,-4.5692924E-2,-2.6386594E-2,7.245371E-2,-5.803583E-3,-9.462396E-2,3.988138E-2,1.5366886E-2,1.2476898E-1,-1.352021E-3,-2.4601803E-3,1.7238446E-5,-1.9192031E-3,-4.85618E-4,6.339998E-3,-6.4734643E-4,1.8171289E-3,2.00894E-3,-6.247261E-3,1.5736781E-3,4.700042E-3,-1.998089E-3,7.7843317E-3,3.8560994E-3,7.2282157E-3],"categories":[],"categories_nodes":[],"categories_segments":[],"categories_sizes":[],"default_left":[0,0,0,0,0,0,0,0,0,0,0,0,0,0,0,0,0,0,0,0,0,0,0,0,0,0,0,0,0,0,0],"id":30,"left_children":[1,3,5,7,9,11,13,15,17,19,21,23,25,27,29,-1,-1,-1,-1,-1,-1,-1,-1,-1,-1,-1,-1,-1,-1,-1,-1],"loss_changes":[9.751139E0,1.1630466E0,2.3566923E0,2.8316545E-1,3.9791963E-1,5.977305E-1,7.276635E-1,9.9447966E-2,4.8556602E-1,3.0487996E-1,4.4032586E-1,1.4399141E-1,5.7401514E-1,5.496808E-1,4.896841E-1,0E0,0E0,0E0,0E0,0E0,0E0,0E0,0E0,0E0,0E0,0E0,0E0,0E0,0E0,0E0,0E0],"parents":[2147483647,0,0,1,1,2,2,3,3,4,4,5,5,6,6,7,7,8,8,9,9,10,10,11,11,12,12,13,13,14,14],"right_children":[2,4,6,8,10,12,14,16,18,20,22,24,26,28,30,-1,-1,-1,-1,-1,-1,-1,-1,-1,-1,-1,-1,-1,-1,-1,-1],"split_conditions":[2.922252E-1,1.3672923E-1,6.219839E-1,5E-1,1.7037086E-2,1.9615242E-1,2.463212E-1,5E-1,7.5E-1,8.737874E-1,9.829629E-1,8.985712E-3,9.829629E-1,9.0400594E-1,3.7059048E-1,-1.352021E-3,-2.4601803E-3,1.7238446E-5,-1.9192031E-3,-4.85618E-4,6.339998E-3,-6.4734643E-4,1.8171289E-3,2.00894E-3,-6.247261E-3,1.5736781E-3,4.700042E-3,-1.998089E-3,7.7843317E-3,3.8560994E-3,7.2282157E-3],"split_indices":[18,18,18,13,12,14,6,15,13,10,12,0,12,10,13,0,0,0,0,0,0,0,0,0,0,0,0,0,0,0,0],"split_type":[0,0,0,0,0,0,0,0,0,0,0,0,0,0,0,0,0,0,0,0,0,0,0,0,0,0,0,0,0,0,0],"sum_hessian":[6.477E3,4.578E3,1.899E3,3.051E3,1.527E3,1.3E3,5.99E2,1.538E3,1.513E3,6.7E1,1.46E3,3.3E1,1.267E3,6.9E1,5.3E2,2.45E2,1.293E3,4.69E2,1.044E3,2.7E1,4E1,1.249E3,2.11E2,6E0,2.7E1,1.098E3,1.69E2,5E1,1.9E1,1.57E2,3.73E2],"tree_param":{"num_deleted":"0","num_feature":"20","num_nodes":"31","size_leaf_vector":"1"}},{"base_weights":[1.2887185E-4,-2.1026986E-2,6.464094E-2,-3.2301877E-2,5.606174E-3,4.410469E-2,1.1686276E-1,-4.1937005E-2,-2.2787523E-2,8.692565E-2,2.0385776E-3,-1.05646014E-1,4.7662668E-2,9.502413E-2,1.8289976E-1,-1.2126857E-3,-2.3054439E-3,-1.87959E-4,-1.9469627E-3,1.00616915E-2,1.909381E-3,-2.88641E-4,2.3648317E-3,2.0266038E-3,-6.641528E-3,6.0814136E-4,3.1553737E-3,3.2071553E-3,7.1418495E-3,-5.0073825E-3,9.319168E-3],"categories":[],"categories_nodes":[],"categories_segments":[],"categories_sizes":[],"default_left":[0,0,0,0,0,0,0,0,0,0,0,0,0,0,0,0,0,0,0,0,0,0,0,0,0,0,0,0,0,0,0],"id":31,"left_children":[1,3,5,7,9,11,13,15,17,19,21,23,25,27,29,-1,-1,-1,-1,-1,-1,-1,-1,-1,-1,-1,-1,-1,-1,-1,-1],"loss_changes":[8.842586E0,1.4652765E0,1.7107496E0,3.1329584E-1,4.2106983E-1,6.1776614E-1,6.330333E-1,1.2444258E-1,5.306309E-1,3.3215585E-1,4.9238497E-1,1.12676054E-1,6.155083E-1,4.9432802E-1,1.2811422E-1,0E0,0E0,0E0,0E0,0E0,0E0,0E0,0E0,0E0,0E0,0E0,0E0,0E0,0E0,0E0,0E0],"parents":[2147483647,0,0,1,1,2,2,3,3,4,4,5,5,6,6,7,7,8,8,9,9,10,10,11,11,12,12,13,13,14,14],"right_children":[2,4,6,8,10,12,14,16,18,20,22,24,26,28,30,-1,-1,-1,-1,-1,-1,-1,-1,-1,-1,-1,-1,-1,-1,-1,-1],"split_conditions":[3.2707775E-1,1.689008E-1,7.211796E-1,5E-1,1.7037086E-2,1.9615242E-1,7.5603217E-1,5E-1,8.535534E-1,1.7343752E-2,9.829629E-1,8.985712E-3,3.7059048E-1,1E0,8.973933E-2,-1.2126857E-3,-2.3054439E-3,-1.87959E-4,-1.9469627E-3,1.00616915E-2,1.909381E-3,-2.88641E-4,2.3648317E-3,2.0266038E-3,-6.641528E-3,6.0814136E-4,3.1553737E-3,3.2071553E-3,7.1418495E-3,-5.0073825E-3,9.319168E-3],"split_indices":[18,18,18,13,12,14,19,15,13,0,12,0,13,11,1,0,0,0,0,0,0,0,0,0,0,0,0,0,0,0,0],"split_type":[0,0,0,0,0,0,0,0,0,0,0,0,0,0,0,0,0,0,0,0,0,0,0,0,0,0,0,0,0,0,0],"sum_hessian":[6.477E3,4.878E3,1.599E3,3.427E3,1.451E3,1.149E3,4.5E2,1.701E3,1.726E3,6E1,1.391E3,2.6E1,1.123E3,3.4E2,1.1E2,3.26E2,1.375E3,7.93E2,9.33E2,1.7E1,4.3E1,1.187E3,2.04E2,4E0,2.2E1,3.41E2,7.82E2,2.08E2,1.32E2,1E0,1.09E2],"tree_param":{"num_deleted":"0","num_feature":"20","num_nodes":"31","size_leaf_vector":"1"}},{"base_weights":[1.258542E-4,-1.3941245E-2,8.823433E-2,-2.925099E-2,1.5759425E-2,2.3088781E-2,1.0116235E-1,-4.065407E-2,-2.0690214E-2,4.788188E-3,4.4581193E-2,4.7536723E-2,-1.3697727E-1,8.5510045E-2,1.497312E-1,-1.2622364E-3,-2.2790225E-3,-1.9753806E-3,-7.204317E-4,-1.3914357E-3,5.1262527E-4,1.4101787E-3,5.6031533E-3,1.1543001E-3,8.667414E-3,-8.348197E-3,4.4300887E-3,6.713567E-3,3.394094E-3,9.134817E-3,4.8274794E-3],"categories":[],"categories_nodes":[],"categories_segments":[],"categories_sizes":[],"default_left":[0,0,0,0,0,0,0,0,0,0,0,0,0,0,0,0,0,0,0,0,0,0,0,0,0,0,0,0,0,0,0],"id":32,"left_children":[1,3,5,7,9,11,13,15,17,19,21,23,25,27,29,-1,-1,-1,-1,-1,-1,-1,-1,-1,-1,-1,-1,-1,-1,-1,-1],"loss_changes":[8.030261E0,2.540924E0,7.489095E-1,3.5908127E-1,6.0090256E-1,5.89591E-1,5.5279636E-1,1.1879039E-1,2.4860275E-1,2.4588498E-1,5.759604E-1,3.9590198E-1,1.5008053E-1,4.7654343E-1,2.9792547E-1,0E0,0E0,0E0,0E0,0E0,0E0,0E0,0E0,0E0,0E0,0E0,0E0,0E0,0E0,0E0,0E0],"parents":[2147483647,0,0,1,1,2,2,3,3,4,4,5,5,6,6,7,7,8,8,9,9,10,10,11,11,12,12,13,13,14,14],"right_children":[2,4,6,8,10,12,14,16,18,20,22,24,26,28,30,-1,-1,-1,-1,-1,-1,-1,-1,-1,-1,-1,-1,-1,-1,-1,-1],"split_conditions":[4.9865952E-1,1.930295E-1,1.2516756E-1,4.8257373E-2,3.6089915E-1,9.282032E-1,9.829629E-1,1.4644662E-1,5.0938338E-2,6.434316E-2,9.829629E-1,9.5174265E-1,1E0,2.3033002E-1,5E-1,-1.2622364E-3,-2.2790225E-3,-1.9753806E-3,-7.204317E-4,-1.3914357E-3,5.1262527E-4,1.4101787E-3,5.6031533E-3,1.1543001E-3,8.667414E-3,-8.348197E-3,4.4300887E-3,6.713567E-3,3.394094E-3,9.134817E-3,4.8274794E-3],"split_indices":[18,18,19,18,19,14,12,12,19,19,12,18,16,1,15,0,0,0,0,0,0,0,0,0,0,0,0,0,0,0,0],"split_type":[0,0,0,0,0,0,0,0,0,0,0,0,0,0,0,0,0,0,0,0,0,0,0,0,0,0,0,0,0,0,0],"sum_hessian":[6.477E3,5.586E3,8.91E2,3.686E3,1.9E3,1.48E2,7.43E2,1.579E3,2.107E3,1.377E3,5.23E2,1.29E2,1.9E1,5.64E2,1.79E2,3.84E2,1.195E3,5.26E2,1.581E3,1.97E2,1.18E3,4.22E2,1.01E2,1.09E2,2E1,1.7E1,2E0,1.48E2,4.16E2,1.09E2,7E1],"tree_param":{"num_deleted":"0","num_feature":"20","num_nodes":"31","size_leaf_vector":"1"}},{"base_weights":[1.2417113E-4,-2.3695312E-2,4.7291953E-2,-3.3960823E-2,-9.526029E-3,2.8352382E-2,9.6929505E-2,-2.1649415E-2,-3.8466293E-2,-1.8624308E-2,7.4207303E-3,2.3358E-2,1.1455324E-1,8.094926E-3,1.0845774E-1,1.0352688E-2,-1.1321314E-3,-1.960331E-3,3.007672E-3,-1.1285078E-3,7.8574626E-4,2.9929099E-3,-1.1482608E-4,6.2168334E-3,9.590628E-4,8.769879E-3,-1.2449546E-3,-2.219966E-3,7.077525E-3,5.614949E-3,-5.145052E-3],"categories":[],"categories_nodes":[],"categories_segments":[],"categories_sizes":[],"default_left":[0,0,0,0,0,0,0,0,0,0,0,0,0,0,0,0,0,0,0,0,0,0,0,0,0,0,0,0,0,0,0],"id":33,"left_children":[1,3,5,7,9,11,13,15,17,19,21,23,25,27,29,-1,-1,-1,-1,-1,-1,-1,-1,-1,-1,-1,-1,-1,-1,-1,-1],"loss_changes":[7.2792335E0,6.2586E-1,2.0410595E0,1.3761687E-1,2.7921548E-1,6.753931E-1,6.135855E-1,1.5710667E-1,1.356759E-1,1.5997064E-1,3.226814E-1,6.260408E-1,7.340672E-1,4.9668026E-1,4.4266462E-1,0E0,0E0,0E0,0E0,0E0,0E0,0E0,0E0,0E0,0E0,0E0,0E0,0E0,0E0,0E0,0E0],"parents":[2147483647,0,0,1,1,2,2,3,3,4,4,5,5,6,6,7,7,8,8,9,9,10,10,11,11,12,12,13,13,14,14],"right_children":[2,4,6,8,10,12,14,16,18,20,22,24,26,28,30,-1,-1,-1,-1,-1,-1,-1,-1,-1,-1,-1,-1,-1,-1,-1,-1],"split_conditions":[2.600536E-1,9.651475E-2,6.219839E-1,3.387694E-2,2.30563E-1,1E0,2.463212E-1,9.92229E-3,8.8412315E-1,9.829629E-1,6.69873E-2,1.7037086E-2,7.114353E-1,9.0400594E-1,1E0,1.0352688E-2,-1.1321314E-3,-1.960331E-3,3.007672E-3,-1.1285078E-3,7.8574626E-4,2.9929099E-3,-1.1482608E-4,6.2168334E-3,9.590628E-4,8.769879E-3,-1.2449546E-3,-2.219966E-3,7.077525E-3,5.614949E-3,-5.145052E-3],"split_indices":[18,18,18,0,19,12,6,9,0,12,12,12,5,10,14,0,0,0,0,0,0,0,0,0,0,0,0,0,0,0,0],"split_type":[0,0,0,0,0,0,0,0,0,0,0,0,0,0,0,0,0,0,0,0,0,0,0,0,0,0,0,0,0,0,0],"sum_hessian":[6.477E3,4.304E3,2.173E3,2.495E3,1.809E3,1.574E3,5.99E2,6.7E2,1.825E3,1.177E3,6.32E2,1.489E3,8.5E1,6.9E1,5.3E2,2E0,6.68E2,1.812E3,1.3E1,1.056E3,1.21E2,9.8E1,5.34E2,5.8E1,1.431E3,5.9E1,2.6E1,5E1,1.9E1,5.21E2,9E0],"tree_param":{"num_deleted":"0","num_feature":"20","num_nodes":"31","size_leaf_vector":"1"}},{"base_weights":[1.2303116E-4,-1.2647993E-2,8.01136E-2,-2.6466206E-2,1.4159162E-2,3.5285234E-2,9.770963E-2,-3.3633992E-2,-1.49730155E-2,3.928539E-3,4.1036334E-2,7.3336825E-2,-2.9858796E-2,6.246366E-2,1.2582974E-1,-1.7203822E-3,1.077428E-3,-1.8285442E-4,-1.6025294E-3,-2.462674E-3,3.6221335E-4,1.2873252E-3,5.2020927E-3,-2.6958873E-3,4.754714E-3,-4.058928E-3,2.0726176E-3,4.3092435E-3,-2.052285E-3,5.343994E-3,8.299495E-3],"categories":[],"categories_nodes":[],"categories_segments":[],"categories_sizes":[],"default_left":[0,0,0,0,0,0,0,0,0,0,0,0,0,0,0,0,0,0,0,0,0,0,0,0,0,0,0,0,0,0,0],"id":34,"left_children":[1,3,5,7,9,11,13,15,17,19,21,23,25,27,29,-1,-1,-1,-1,-1,-1,-1,-1,-1,-1,-1,-1,-1,-1,-1,-1],"loss_changes":[6.618688E0,2.06995E0,7.0016336E-1,3.0323386E-1,5.2255726E-1,6.293347E-1,6.264572E-1,9.765291E-2,2.7390924E-1,2.4334933E-1,5.0211334E-1,4.4812518E-1,3.4737414E-1,7.057725E-1,2.5242424E-1,0E0,0E0,0E0,0E0,0E0,0E0,0E0,0E0,0E0,0E0,0E0,0E0,0E0,0E0,0E0,0E0],"parents":[2147483647,0,0,1,1,2,2,3,3,4,4,5,5,6,6,7,7,8,8,9,9,10,10,11,11,12,12,13,13,14,14],"right_children":[2,4,6,8,10,12,14,16,18,20,22,24,26,28,30,-1,-1,-1,-1,-1,-1,-1,-1,-1,-1,-1,-1,-1,-1,-1,-1],"split_conditions":[4.9865952E-1,1.930295E-1,3.7059048E-1,1.152815E-1,3.6089915E-1,6.340302E-1,5.324053E-2,8.3804417E-1,9.9161196E-1,1.8563475E-1,9.829629E-1,2.8372735E-1,3.994638E-1,4.2107514E-1,8.981233E-1,-1.7203822E-3,1.077428E-3,-1.8285442E-4,-1.6025294E-3,-2.462674E-3,3.6221335E-4,1.2873252E-3,5.2020927E-3,-2.6958873E-3,4.754714E-3,-4.058928E-3,2.0726176E-3,4.3092435E-3,-2.052285E-3,5.343994E-3,8.299495E-3],"split_indices":[18,18,13,19,19,4,0,4,3,6,12,6,19,8,18,0,0,0,0,0,0,0,0,0,0,0,0,0,0,0,0],"split_type":[0,0,0,0,0,0,0,0,0,0,0,0,0,0,0,0,0,0,0,0,0,0,0,0,0,0,0,0,0,0,0],"sum_hessian":[6.477E3,5.586E3,8.91E2,3.686E3,1.9E3,2.52E2,6.39E2,2.269E3,1.417E3,1.377E3,5.23E2,1.59E2,9.3E1,2.85E2,3.54E2,2.238E3,3.1E1,8.53E2,5.64E2,8E1,1.297E3,4.22E2,1.01E2,2.3E1,1.36E2,5.4E1,3.9E1,2.32E2,5.3E1,2.43E2,1.11E2],"tree_param":{"num_deleted":"0","num_feature":"20","num_nodes":"31","size_leaf_vector":"1"}},{"base_weights":[1.19649405E-4,-1.7321102E-2,5.3302966E-2,-2.7918085E-2,1.4910112E-3,4.0523414E-2,1.1366592E-1,-3.652305E-2,-1.928419E-2,7.462103E-2,-1.764919E-3,-1.0735832E-1,4.3806296E-2,1.19644664E-1,-1.3574295E-1,-1.8893753E-3,5.653342E-4,2.2894969E-4,-1.5011223E-3,-7.027742E-4,6.3874326E-3,-4.032848E-4,1.7919372E-3,-2.7364092E-3,-9.425255E-3,1.9094493E-3,6.729854E-3,6.6951447E-4,6.6353693E-3,-1.0764593E-2,8.538762E-3],"categories":[],"categories_nodes":[],"categories_segments":[],"categories_sizes":[],"default_left":[0,0,0,0,0,0,0,0,0,0,0,0,0,0,0,0,0,0,0,0,0,0,0,0,0,0,0,0,0,0,0],"id":35,"left_children":[1,3,5,7,9,11,13,15,17,19,21,23,25,27,29,-1,-1,-1,-1,-1,-1,-1,-1,-1,-1,-1,-1,-1,-1,-1,-1],"loss_changes":[6.0096383E0,9.726784E-1,1.2296519E0,2.3116851E-1,4.189606E-1,6.465051E-1,4.322722E-1,9.489465E-2,3.9988577E-1,3.5513347E-1,3.9951995E-1,1.1353564E-1,6.547997E-1,3.771391E-1,2.0744881E-1,0E0,0E0,0E0,0E0,0E0,0E0,0E0,0E0,0E0,0E0,0E0,0E0,0E0,0E0,0E0,0E0],"parents":[2147483647,0,0,1,1,2,2,3,3,4,4,5,5,6,6,7,7,8,8,9,9,10,10,11,11,12,12,13,13,14,14],"right_children":[2,4,6,8,10,12,14,16,18,20,22,24,26,28,30,-1,-1,-1,-1,-1,-1,-1,-1,-1,-1,-1,-1,-1,-1,-1,-1],"split_conditions":[3.2707775E-1,1.4209116E-1,8.6863273E-1,5E-1,1.7037086E-2,1.9615242E-1,1E0,9.5325595E-1,7.5E-1,8.737874E-1,9.829629E-1,2.7525502E-1,1E0,2.463212E-1,4.2391777E-1,-1.8893753E-3,5.653342E-4,2.2894969E-4,-1.5011223E-3,-7.027742E-4,6.3874326E-3,-4.032848E-4,1.7919372E-3,-2.7364092E-3,-9.425255E-3,1.9094493E-3,6.729854E-3,6.6951447E-4,6.6353693E-3,-1.0764593E-2,8.538762E-3],"split_indices":[18,18,18,13,12,14,14,9,13,10,12,6,12,6,0,0,0,0,0,0,0,0,0,0,0,0,0,0,0,0,0],"split_type":[0,0,0,0,0,0,0,0,0,0,0,0,0,0,0,0,0,0,0,0,0,0,0,0,0,0,0,0,0,0,0],"sum_hessian":[6.477E3,4.878E3,1.599E3,3.12E3,1.758E3,1.321E3,2.78E2,1.561E3,1.559E3,7.4E1,1.684E3,2.8E1,1.293E3,2.72E2,6E0,1.521E3,4E1,4.84E2,1.075E3,2.8E1,4.6E1,1.443E3,2.41E2,1.8E1,1E1,1.219E3,7.4E1,3E1,2.42E2,5E0,1E0],"tree_param":{"num_deleted":"0","num_feature":"20","num_nodes":"31","size_leaf_vector":"1"}},{"base_weights":[1.14601775E-4,-1.1500734E-2,7.286658E-2,-2.3971092E-2,1.2691645E-2,3.0419461E-2,8.953261E-2,-3.5254672E-2,-1.7322797E-2,3.1404626E-3,3.7784845E-2,6.674525E-2,-3.1735282E-2,5.648191E-2,1.1574023E-1,-7.959154E-4,-1.9436352E-3,-1.9092879E-3,-6.273741E-4,-1.025866E-3,5.1285763E-4,1.1791516E-3,4.8155077E-3,-2.6799913E-3,4.3670204E-3,-3.984709E-3,1.7500786E-3,3.950275E-3,-2.1801281E-3,4.9341572E-3,7.600961E-3],"categories":[],"categories_nodes":[],"categories_segments":[],"categories_sizes":[],"default_left":[0,0,0,0,0,0,0,0,0,0,0,0,0,0,0,0,0,0,0,0,0,0,0,0,0,0,0,0,0,0,0],"id":36,"left_children":[1,3,5,7,9,11,13,15,17,19,21,23,25,27,29,-1,-1,-1,-1,-1,-1,-1,-1,-1,-1,-1,-1,-1,-1,-1,-1],"loss_changes":[5.474999E0,1.685833E0,6.2829876E-1,2.7597523E-1,4.5549345E-1,5.7334673E-1,5.478182E-1,9.494591E-2,2.3085529E-1,2.3221757E-1,4.3325943E-1,4.0124553E-1,3.0364823E-1,6.4590925E-1,2.0529604E-1,0E0,0E0,0E0,0E0,0E0,0E0,0E0,0E0,0E0,0E0,0E0,0E0,0E0,0E0,0E0,0E0],"parents":[2147483647,0,0,1,1,2,2,3,3,4,4,5,5,6,6,7,7,8,8,9,9,10,10,11,11,12,12,13,13,14,14],"right_children":[2,4,6,8,10,12,14,16,18,20,22,24,26,28,30,-1,-1,-1,-1,-1,-1,-1,-1,-1,-1,-1,-1,-1,-1,-1,-1],"split_conditions":[4.9865952E-1,1.930295E-1,3.7059048E-1,4.021448E-2,3.6089915E-1,6.340302E-1,5.2455727E-2,6.69873E-2,2.725588E-1,3.3018133E-1,9.829629E-1,2.8372735E-1,3.994638E-1,4.2107514E-1,8.981233E-1,-7.959154E-4,-1.9436352E-3,-1.9092879E-3,-6.273741E-4,-1.025866E-3,5.1285763E-4,1.1791516E-3,4.8155077E-3,-2.6799913E-3,4.3670204E-3,-3.984709E-3,1.7500786E-3,3.950275E-3,-2.1801281E-3,4.9341572E-3,7.600961E-3],"split_indices":[18,18,13,18,19,4,0,12,6,6,12,6,19,8,18,0,0,0,0,0,0,0,0,0,0,0,0,0,0,0,0],"split_type":[0,0,0,0,0,0,0,0,0,0,0,0,0,0,0,0,0,0,0,0,0,0,0,0,0,0,0,0,0,0,0],"sum_hessian":[6.477E3,5.586E3,8.91E2,3.686E3,1.9E3,2.52E2,6.39E2,1.365E3,2.321E3,1.377E3,5.23E2,1.59E2,9.3E1,2.84E2,3.55E2,2.16E2,1.149E3,4.31E2,1.89E3,3.18E2,1.059E3,4.22E2,1.01E2,2.3E1,1.36E2,5.4E1,3.9E1,2.32E2,5.2E1,2.44E2,1.11E2],"tree_param":{"num_deleted":"0","num_feature":"20","num_nodes":"31","size_leaf_vector":"1"}},{"base_weights":[1.11024594E-4,-1.6761353E-2,4.5456074E-2,-2.6609916E-2,-2.2223222E-3,3.0555172E-2,8.853817E-2,-3.837409E-2,-2.2169534E-2,-8.137403E-3,3.2635566E-2,8.3906375E-2,2.3356566E-2,6.952743E-2,1.4614289E-1,-1.9637288E-3,5.362771E-3,-4.7607563E-4,-1.3253315E-3,4.3196353E-5,-1.3999309E-3,1.1890879E-3,1.3332701E-2,7.195979E-3,1.5056381E-3,-5.742877E-4,1.912388E-3,1.0643548E-2,3.0440104E-3,-5.132336E-3,7.4668885E-3],"categories":[],"categories_nodes":[],"categories_segments":[],"categories_sizes":[],"default_left":[0,0,0,0,0,0,0,0,0,0,0,0,0,0,0,0,0,0,0,0,0,0,0,0,0,0,0,0,0,0,0],"id":37,"left_children":[1,3,5,7,9,11,13,15,17,19,21,23,25,27,29,-1,-1,-1,-1,-1,-1,-1,-1,-1,-1,-1,-1,-1,-1,-1,-1],"loss_changes":[4.9569426E0,6.7607725E-1,1.1252222E0,1.4619768E-1,3.9367077E-1,4.9999917E-1,4.8373246E-1,1.0518825E-1,1.1198223E-1,2.9178882E-1,5.675899E-1,4.960568E-1,5.9866637E-1,4.0971804E-1,1.0355759E-1,0E0,0E0,0E0,0E0,0E0,0E0,0E0,0E0,0E0,0E0,0E0,0E0,0E0,0E0,0E0,0E0],"parents":[2147483647,0,0,1,1,2,2,3,3,4,4,5,5,6,6,7,7,8,8,9,9,10,10,11,11,12,12,13,13,14,14],"right_children":[2,4,6,8,10,12,14,16,18,20,22,24,26,28,30,-1,-1,-1,-1,-1,-1,-1,-1,-1,-1,-1,-1,-1,-1,-1,-1],"split_conditions":[3.08311E-1,1.17962465E-1,7.211796E-1,2.1447722E-2,8.573991E-1,6.69873E-2,7.5603217E-1,9.48821E-1,3.387694E-2,9.9056554E-1,9.5174265E-1,3.523124E-1,2.0375335E-1,8.985712E-3,8.973933E-2,-1.9637288E-3,5.362771E-3,-4.7607563E-4,-1.3253315E-3,4.3196353E-5,-1.3999309E-3,1.1890879E-3,1.3332701E-2,7.195979E-3,1.5056381E-3,-5.742877E-4,1.912388E-3,1.0643548E-2,3.0440104E-3,-5.132336E-3,7.4668885E-3],"split_indices":[18,18,18,18,9,12,19,1,0,3,19,4,19,0,1,0,0,0,0,0,0,0,0,0,0,0,0,0,0,0,0],"split_type":[0,0,0,0,0,0,0,0,0,0,0,0,0,0,0,0,0,0,0,0,0,0,0,0,0,0,0,0,0,0,0],"sum_hessian":[6.477E3,4.721E3,1.756E3,2.814E3,1.907E3,1.306E3,4.5E2,7.69E2,2.045E3,1.631E3,2.76E2,1.54E2,1.152E3,3.4E2,1.1E2,7.65E2,4E0,5.23E2,1.522E3,1.123E3,5.08E2,2.67E2,9E0,7.2E1,8.2E1,3.45E2,8.07E2,1.8E1,3.22E2,1E0,1.09E2],"tree_param":{"num_deleted":"0","num_feature":"20","num_nodes":"31","size_leaf_vector":"1"}},{"base_weights":[1.11775335E-4,-1.0441032E-2,6.620866E-2,-2.1699281E-2,1.1399898E-2,8.266522E-3,7.707627E-2,-2.9260635E-2,-1.3156786E-2,2.5710757E-3,3.459592E-2,3.0295735E-2,-1.3593817E-1,6.466225E-2,1.1581291E-1,2.432413E-4,-1.5350141E-3,-2.0191779E-4,-1.306687E-3,-1.0328203E-5,3.0766027E-3,1.0591078E-3,4.494221E-3,2.9429162E-4,7.846647E-3,-8.246012E-3,3.6803146E-3,5.3639957E-3,2.4748743E-3,-2.855788E-3,6.2069884E-3],"categories":[],"categories_nodes":[],"categories_segments":[],"categories_sizes":[],"default_left":[0,0,0,0,0,0,0,0,0,0,0,0,0,0,0,0,0,0,0,0,0,0,0,0,0,0,0,0,0,0,0],"id":38,"left_children":[1,3,5,7,9,11,13,15,17,19,21,23,25,27,29,-1,-1,-1,-1,-1,-1,-1,-1,-1,-1,-1,-1,-1,-1,-1,-1],"loss_changes":[4.519146E0,1.3740385E0,5.610485E-1,2.3776877E-1,3.8922364E-1,4.5521197E-1,3.5365057E-1,9.61957E-2,2.0495939E-1,2.2569102E-1,3.8670856E-1,3.8238537E-1,1.2752679E-1,3.6371946E-1,2.677214E-1,0E0,0E0,0E0,0E0,0E0,0E0,0E0,0E0,0E0,0E0,0E0,0E0,0E0,0E0,0E0,0E0],"parents":[2147483647,0,0,1,1,2,2,3,3,4,4,5,5,6,6,7,7,8,8,9,9,10,10,11,11,12,12,13,13,14,14],"right_children":[2,4,6,8,10,12,14,16,18,20,22,24,26,28,30,-1,-1,-1,-1,-1,-1,-1,-1,-1,-1,-1,-1,-1,-1,-1,-1],"split_conditions":[4.9865952E-1,1.930295E-1,1.2232826E-1,8.579089E-2,3.6089915E-1,9.282032E-1,9.829629E-1,1.7037086E-2,9.9161196E-1,7.104221E-1,9.829629E-1,9.5174265E-1,1E0,2.3033002E-1,1.5549597E-1,2.432413E-4,-1.5350141E-3,-2.0191779E-4,-1.306687E-3,-1.0328203E-5,3.0766027E-3,1.0591078E-3,4.494221E-3,2.9429162E-4,7.846647E-3,-8.246012E-3,3.6803146E-3,5.3639957E-3,2.4748743E-3,-2.855788E-3,6.2069884E-3],"split_indices":[18,18,19,19,19,14,12,12,3,0,12,18,16,1,19,0,0,0,0,0,0,0,0,0,0,0,0,0,0,0,0],"split_type":[0,0,0,0,0,0,0,0,0,0,0,0,0,0,0,0,0,0,0,0,0,0,0,0,0,0,0,0,0,0,0],"sum_hessian":[6.477E3,5.586E3,8.91E2,3.686E3,1.9E3,1.41E2,7.5E2,1.954E3,1.732E3,1.377E3,5.23E2,1.23E2,1.8E1,5.7E2,1.8E2,7.9E1,1.875E3,1.018E3,7.14E2,1.316E3,6.1E1,4.22E2,1.01E2,1.04E2,1.9E1,1.6E1,2E0,1.48E2,4.22E2,8E0,1.72E2],"tree_param":{"num_deleted":"0","num_feature":"20","num_nodes":"31","size_leaf_vector":"1"}},{"base_weights":[1.0936436E-4,-1.7759899E-2,3.54944E-2,-2.6364166E-2,-7.56714E-3,2.1216922E-2,7.2913624E-2,-2.725077E-2,3.0987686E-2,3.7185685E-4,-2.2995416E-2,-5.4304684E-3,3.3616107E-2,3.27018E-2,9.2638105E-2,-8.6203107E-4,-1.6517321E-3,5.8578085E-3,-8.4890315E-4,-1.7685831E-3,2.0805714E-4,-1.7004329E-3,1.2539931E-4,8.971367E-4,-2.8378689E-3,3.1576974E-3,7.65492E-4,-1.3220491E-3,3.5928902E-3,-2.5292786E-3,4.877727E-3],"categories":[],"categories_nodes":[],"categories_segments":[],"categories_sizes":[],"default_left":[0,0,0,0,0,0,0,0,0,0,0,0,0,0,0,0,0,0,0,0,0,0,0,0,0,0,0,0,0,0,0],"id":39,"left_children":[1,3,5,7,9,11,13,15,17,19,21,23,25,27,29,-1,-1,-1,-1,-1,-1,-1,-1,-1,-1,-1,-1,-1,-1,-1,-1],"loss_changes":[4.0966988E0,3.7735438E-1,1.1599176E0,1.1952448E-1,2.4154906E-1,5.205719E-1,4.7286487E-1,1.3253665E-1,1.5078199E-1,1.7662866E-1,1.8827152E-1,6.0205513E-1,5.8031535E-1,4.6274316E-1,2.8800297E-1,0E0,0E0,0E0,0E0,0E0,0E0,0E0,0E0,0E0,0E0,0E0,0E0,0E0,0E0,0E0,0E0],"parents":[2147483647,0,0,1,1,2,2,3,3,4,4,5,5,6,6,7,7,8,8,9,9,10,10,11,11,12,12,13,13,14,14],"right_children":[2,4,6,8,10,12,14,16,18,20,22,24,26,28,30,-1,-1,-1,-1,-1,-1,-1,-1,-1,-1,-1,-1,-1,-1,-1,-1],"split_conditions":[2.600536E-1,1.07238606E-1,6.219839E-1,8.3804417E-1,5.036116E-1,3.7059048E-1,3.819681E-1,3.7264124E-1,5.742494E-1,2.9490616E-2,8.0555993E-1,8.535534E-1,7.5E-1,2.627346E-1,1.7037086E-2,-8.6203107E-4,-1.6517321E-3,5.8578085E-3,-8.4890315E-4,-1.7685831E-3,2.0805714E-4,-1.7004329E-3,1.2539931E-4,8.971367E-4,-2.8378689E-3,3.1576974E-3,7.65492E-4,-1.3220491E-3,3.5928902E-3,-2.5292786E-3,4.877727E-3],"split_indices":[18,19,18,4,8,13,6,4,8,18,9,12,13,19,13,0,0,0,0,0,0,0,0,0,0,0,0,0,0,0,0],"split_type":[0,0,0,0,0,0,0,0,0,0,0,0,0,0,0,0,0,0,0,0,0,0,0,0,0,0,0,0,0,0,0],"sum_hessian":[6.477E3,4.304E3,2.173E3,2.333E3,1.971E3,1.574E3,5.99E2,2.298E3,3.5E1,1.302E3,6.69E2,5E2,1.074E3,1.98E2,4.01E2,8.43E2,1.455E3,1.2E1,2.3E1,1.24E2,1.178E3,4.67E2,2.02E2,3.44E2,1.56E2,4.1E2,6.64E2,7.9E1,1.19E2,1.3E1,3.88E2],"tree_param":{"num_deleted":"0","num_feature":"20","num_nodes":"31","size_leaf_vector":"1"}},{"base_weights":[1.04815E-4,-1.0546776E-2,5.413134E-2,-2.0435626E-2,7.507429E-3,1.7304087E-2,6.88492E-2,-2.8108386E-2,-1.290762E-2,3.5738025E-2,4.3107136E-4,5.940751E-2,-1.85627E-2,5.4047797E-2,1.20074965E-1,-1.6105622E-3,-8.071546E-4,1.813466E-4,-1.3485057E-3,1.5089771E-3,9.024253E-3,-4.126982E-4,1.624368E-3,-8.953065E-3,3.294458E-3,2.2720427E-3,-2.622467E-3,5.498367E-3,2.010919E-3,6.8026446E-3,2.480978E-3],"categories":[],"categories_nodes":[],"categories_segments":[],"categories_sizes":[],"default_left":[0,0,0,0,0,0,0,0,0,0,0,0,0,0,0,0,0,0,0,0,0,0,0,0,0,0,0,0,0,0,0],"id":40,"left_children":[1,3,5,7,9,11,13,15,17,19,21,23,25,27,29,-1,-1,-1,-1,-1,-1,-1,-1,-1,-1,-1,-1,-1,-1,-1,-1],"loss_changes":[3.7284548E0,9.6638644E-1,5.77142E-1,2.0162606E-1,3.8274354E-1,4.631978E-1,5.712688E-1,8.445811E-2,4.1095546E-1,3.0350932E-1,4.2707062E-1,2.2973791E-1,3.6241496E-1,4.5416462E-1,1.8462324E-1,0E0,0E0,0E0,0E0,0E0,0E0,0E0,0E0,0E0,0E0,0E0,0E0,0E0,0E0,0E0,0E0],"parents":[2147483647,0,0,1,1,2,2,3,3,4,4,5,5,6,6,7,7,8,8,9,9,10,10,11,11,12,12,13,13,14,14],"right_children":[2,4,6,8,10,12,14,16,18,20,22,24,26,28,30,-1,-1,-1,-1,-1,-1,-1,-1,-1,-1,-1,-1,-1,-1,-1,-1],"split_conditions":[4.3967828E-1,1.7426273E-1,3.7059048E-1,5E-1,1.4644662E-1,3.115669E-1,8.573991E-1,5.55716E-1,8.535534E-1,8.6073947E-1,4.9227765E-1,2.9402065E-1,1.8272674E-1,1.6277966E-1,1E0,-1.6105622E-3,-8.071546E-4,1.813466E-4,-1.3485057E-3,1.5089771E-3,9.024253E-3,-4.126982E-4,1.624368E-3,-8.953065E-3,3.294458E-3,2.2720427E-3,-2.622467E-3,5.498367E-3,2.010919E-3,6.8026446E-3,2.480978E-3],"split_indices":[18,18,13,13,12,1,9,6,13,9,0,4,0,9,16,0,0,0,0,0,0,0,0,0,0,0,0,0,0,0,0],"split_type":[0,0,0,0,0,0,0,0,0,0,0,0,0,0,0,0,0,0,0,0,0,0,0,0,0,0,0,0,0,0,0],"sum_hessian":[6.477E3,5.411E3,1.066E3,3.496E3,1.915E3,3.05E2,7.61E2,1.73E3,1.766E3,3.83E2,1.532E3,1.4E2,1.65E2,5.92E2,1.69E2,1.287E3,4.43E2,8.12E2,9.54E2,3.7E2,1.3E1,1.206E3,3.26E2,3E0,1.37E2,5.7E1,1.08E2,1.16E2,4.76E2,1.37E2,3.2E1],"tree_param":{"num_deleted":"0","num_feature":"20","num_nodes":"31","size_leaf_vector":"1"}},{"base_weights":[1.0249835E-4,-9.048541E-3,5.741949E-2,-1.7690485E-2,1.20510375E-2,3.9086875E-2,8.6648405E-2,-2.6262205E-2,-1.07137095E-2,-2.3414481E-2,1.8921608E-2,-1.2879866E-2,5.552824E-2,6.611212E-2,1.3804853E-1,-7.655949E-4,-1.48666E-3,-7.247002E-4,5.940893E-4,5.667102E-4,-2.6448239E-3,6.06055E-4,3.3735314E-3,2.9102438E-3,-2.4338437E-3,1.8109579E-3,5.6010415E-3,7.2807283E-3,2.8251614E-3,7.3217414E-3,-1.667589E-2],"categories":[],"categories_nodes":[],"categories_segments":[],"categories_sizes":[],"default_left":[0,0,0,0,0,0,0,0,0,0,0,0,0,0,0,0,0,0,0,0,0,0,0,0,0,0,0,0,0,0,0],"id":41,"left_children":[1,3,5,7,9,11,13,15,17,19,21,23,25,27,29,-1,-1,-1,-1,-1,-1,-1,-1,-1,-1,-1,-1,-1,-1,-1,-1],"loss_changes":[3.3982959E0,1.0189545E0,4.7458458E-1,2.3677766E-1,3.9616045E-1,4.7063738E-1,3.529327E-1,6.712377E-2,1.8698058E-1,2.7105713E-1,4.485272E-1,3.412678E-1,4.519055E-1,1.8046331E-1,4.3244386E-1,0E0,0E0,0E0,0E0,0E0,0E0,0E0,0E0,0E0,0E0,0E0,0E0,0E0,0E0,0E0,0E0],"parents":[2147483647,0,0,1,1,2,2,3,3,4,4,5,5,6,6,7,7,8,8,9,9,10,10,11,11,12,12,13,13,14,14],"right_children":[2,4,6,8,10,12,14,16,18,20,22,24,26,28,30,-1,-1,-1,-1,-1,-1,-1,-1,-1,-1,-1,-1,-1,-1,-1,-1],"split_conditions":[4.9865952E-1,2.1983914E-1,1E0,5.6300268E-2,2.9288176E-1,3.7059048E-1,1E0,1.4644662E-1,9.0211236E-1,3.8431877E-1,9.829629E-1,1.8272674E-1,8.573991E-1,3.579602E-1,9.4370484E-1,-7.655949E-4,-1.48666E-3,-7.247002E-4,5.940893E-4,5.667102E-4,-2.6448239E-3,6.06055E-4,3.3735314E-3,2.9102438E-3,-2.4338437E-3,1.8109579E-3,5.6010415E-3,7.2807283E-3,2.8251614E-3,7.3217414E-3,-1.667589E-2],"split_indices":[18,18,11,18,6,13,18,12,10,7,12,0,9,10,10,0,0,0,0,0,0,0,0,0,0,0,0,0,0,0,0],"split_type":[0,0,0,0,0,0,0,0,0,0,0,0,0,0,0,0,0,0,0,0,0,0,0,0,0,0,0,0,0,0,0],"sum_hessian":[6.477E3,5.586E3,8.91E2,3.963E3,1.623E3,5.49E2,3.42E2,1.777E3,2.186E3,2.63E2,1.36E3,1.32E2,4.17E2,2.46E2,9.6E1,4.29E2,1.348E3,1.873E3,3.13E2,1.21E2,1.42E2,1.194E3,1.66E2,4.4E1,8.8E1,3.12E2,1.05E2,2.5E1,2.21E2,9.5E1,1E0],"tree_param":{"num_deleted":"0","num_feature":"20","num_nodes":"31","size_leaf_vector":"1"}},{"base_weights":[9.8632605E-5,-1.3959555E-2,3.3978812E-2,-2.228534E-2,-4.1032354E-3,2.609704E-2,9.109387E-2,-2.3145787E-2,4.2271733E-2,4.429187E-3,-2.0968616E-2,-1.2651889E-2,3.4141544E-2,9.7574845E-2,-1.1003267E-2,-1.1844952E-3,4.4687293E-3,5.8418065E-3,-6.018467E-4,-9.445532E-5,1.4296953E-3,8.79403E-5,-1.5640795E-3,-2.5321823E-3,9.6854067E-4,1.4863004E-3,4.827717E-3,-8.336695E-3,5.093913E-3],"categories":[],"categories_nodes":[],"categories_segments":[],"categories_sizes":[],"default_left":[0,0,0,0,0,0,0,0,0,0,0,0,0,0,0,0,0,0,0,0,0,0,0,0,0,0,0,0,0],"id":42,"left_children":[1,3,5,7,9,11,13,15,17,19,21,23,25,27,-1,-1,-1,-1,-1,-1,-1,-1,-1,-1,-1,-1,-1,-1,-1],"loss_changes":[3.0859063E0,3.756686E-1,8.5294175E-1,1.3884866E-1,3.0200046E-1,5.213094E-1,4.8529506E-1,1.5211642E-1,1.3503961E-1,2.1288964E-1,1.6529804E-1,3.5136145E-1,3.7854075E-1,2.7404523E-1,0E0,0E0,0E0,0E0,0E0,0E0,0E0,0E0,0E0,0E0,0E0,0E0,0E0,0E0,0E0],"parents":[2147483647,0,0,1,1,2,2,3,3,4,4,5,5,6,6,7,7,8,8,9,9,10,10,11,11,12,12,13,13],"right_children":[2,4,6,8,10,12,14,16,18,20,22,24,26,28,-1,-1,-1,-1,-1,-1,-1,-1,-1,-1,-1,-1,-1,-1,-1],"split_conditions":[2.922252E-1,1.152815E-1,9.5174265E-1,8.506639E-1,9.9161196E-1,1.2232826E-1,1E0,8.3492684E-1,6.2940955E-1,7.820626E-1,3.6144888E-1,5E-1,1E0,1.7037086E-2,-1.1003267E-2,-1.1844952E-3,4.4687293E-3,5.8418065E-3,-6.018467E-4,-9.445532E-5,1.4296953E-3,8.79403E-5,-1.5640795E-3,-2.5321823E-3,9.6854067E-4,1.4863004E-3,4.827717E-3,-8.336695E-3,5.093913E-3],"split_indices":[18,19,18,4,3,19,14,5,13,9,8,13,12,13,0,0,0,0,0,0,0,0,0,0,0,0,0,0,0],"split_type":[0,0,0,0,0,0,0,0,0,0,0,0,0,0,0,0,0,0,0,0,0,0,0,0,0,0,0,0,0],"sum_hessian":[6.477E3,4.578E3,1.899E3,2.481E3,2.097E3,1.67E3,2.29E2,2.449E3,3.2E1,1.393E3,7.04E2,2.87E2,1.383E3,2.25E2,4E0,2.438E3,1.1E1,1.3E1,1.9E1,1.105E3,2.88E2,2.2E2,4.84E2,1.31E2,1.56E2,1.293E3,9E1,3E0,2.22E2],"tree_param":{"num_deleted":"0","num_feature":"20","num_nodes":"29","size_leaf_vector":"1"}},{"base_weights":[9.3527764E-5,-8.25733E-3,5.239863E-2,-1.6668117E-2,9.681507E-3,3.5167173E-2,7.9876475E-2,-2.4316482E-2,-9.055108E-3,-2.0389821E-2,1.5750004E-2,-1.35221835E-2,5.057511E-2,6.143655E-2,1.2600827E-1,-6.139997E-4,-1.539423E-3,-4.8710263E-4,6.115054E-3,1.9067053E-3,-1.2808513E-3,2.4717886E-3,5.050643E-4,2.730823E-3,-2.3911186E-3,1.0913947E-3,4.2313184E-3,6.8376176E-3,2.616952E-3,6.7074257E-3,-1.6386341E-2],"categories":[],"categories_nodes":[],"categories_segments":[],"categories_sizes":[],"default_left":[0,0,0,0,0,0,0,0,0,0,0,0,0,0,0,0,0,0,0,0,0,0,0,0,0,0,0,0,0,0,0],"id":43,"left_children":[1,3,5,7,9,11,13,15,17,19,21,23,25,27,29,-1,-1,-1,-1,-1,-1,-1,-1,-1,-1,-1,-1,-1,-1,-1,-1],"loss_changes":[2.829974E0,8.4312636E-1,4.1953826E-1,2.2127557E-1,3.2587928E-1,4.1329515E-1,2.840371E-1,1.47398E-1,1.7335859E-1,9.2751816E-2,2.8206843E-1,3.1345525E-1,4.073242E-1,1.6208345E-1,4.0223444E-1,0E0,0E0,0E0,0E0,0E0,0E0,0E0,0E0,0E0,0E0,0E0,0E0,0E0,0E0,0E0,0E0],"parents":[2147483647,0,0,1,1,2,2,3,3,4,4,5,5,6,6,7,7,8,8,9,9,10,10,11,11,12,12,13,13,14,14],"right_children":[2,4,6,8,10,12,14,16,18,20,22,24,26,28,30,-1,-1,-1,-1,-1,-1,-1,-1,-1,-1,-1,-1,-1,-1,-1,-1],"split_conditions":[4.9865952E-1,2.30563E-1,1E0,6.434316E-2,8.310992E-2,3.7059048E-1,1E0,3.7264124E-1,9.0502673E-1,9.9031135E-2,6.69873E-2,1.8272674E-1,2.8620395E-1,3.579602E-1,9.4370484E-1,-6.139997E-4,-1.539423E-3,-4.8710263E-4,6.115054E-3,1.9067053E-3,-1.2808513E-3,2.4717886E-3,5.050643E-4,2.730823E-3,-2.3911186E-3,1.0913947E-3,4.2313184E-3,6.8376176E-3,2.616952E-3,6.7074257E-3,-1.6386341E-2],"split_indices":[18,19,11,19,18,13,18,4,2,16,12,0,7,10,10,0,0,0,0,0,0,0,0,0,0,0,0,0,0,0,0],"split_type":[0,0,0,0,0,0,0,0,0,0,0,0,0,0,0,0,0,0,0,0,0,0,0,0,0,0,0,0,0,0,0],"sum_hessian":[6.477E3,5.586E3,8.91E2,3.803E3,1.783E3,5.49E2,3.42E2,1.896E3,1.907E3,2.99E2,1.484E3,1.32E2,4.17E2,2.46E2,9.6E1,6.64E2,1.232E3,1.898E3,9E0,2.4E1,2.75E2,2.12E2,1.272E3,4.4E1,8.8E1,2.27E2,1.9E2,2.5E1,2.21E2,9.5E1,1E0],"tree_param":{"num_deleted":"0","num_feature":"20","num_nodes":"31","size_leaf_vector":"1"}},{"base_weights":[9.078331E-5,-7.843196E-3,4.9784787E-2,-1.5347024E-2,1.0477628E-2,1.0639008E-2,6.1376505E-2,-1.6550643E-2,2.472263E-2,-7.679286E-2,1.3127282E-2,3.732878E-2,-1.0763786E-1,4.9402058E-2,9.8438084E-2,-1.342071E-4,-1.0302697E-3,-9.932553E-4,2.2928475E-3,-7.5127594E-3,-1.7683114E-3,4.749273E-4,3.8755336E-3,-2.9631678E-4,4.3067127E-3,-3.1930134E-3,-1.2080169E-2,3.9263405E-3,1.3536726E-3,2.9426144E-4,5.6589986E-3],"categories":[],"categories_nodes":[],"categories_segments":[],"categories_sizes":[],"default_left":[0,0,0,0,0,0,0,0,0,0,0,0,0,0,0,0,0,0,0,0,0,0,0,0,0,0,0,0,0,0,0],"id":44,"left_children":[1,3,5,7,9,11,13,15,17,19,21,23,25,27,29,-1,-1,-1,-1,-1,-1,-1,-1,-1,-1,-1,-1,-1,-1,-1,-1],"loss_changes":[2.5544796E0,7.682409E-1,4.0410686E-1,1.9158757E-1,3.765365E-1,6.5115845E-1,3.0046582E-1,2.1635532E-1,1.1022141E-1,1.407643E-1,3.6769876E-1,3.551729E-1,2.0742932E-1,3.3733845E-1,2.2718918E-1,0E0,0E0,0E0,0E0,0E0,0E0,0E0,0E0,0E0,0E0,0E0,0E0,0E0,0E0,0E0,0E0],"parents":[2147483647,0,0,1,1,2,2,3,3,4,4,5,5,6,6,7,7,8,8,9,9,10,10,11,11,12,12,13,13,14,14],"right_children":[2,4,6,8,10,12,14,16,18,20,22,24,26,28,30,-1,-1,-1,-1,-1,-1,-1,-1,-1,-1,-1,-1,-1,-1,-1,-1],"split_conditions":[4.9865952E-1,2.1983914E-1,1.8230563E-1,8.27442E-1,1.9615242E-1,9.282032E-1,9.829629E-1,1.4644662E-1,2.8828856E-1,6.495838E-1,1E0,4.019351E-1,5.3139025E-1,2.7764428E-1,9.9031135E-2,-1.342071E-4,-1.0302697E-3,-9.932553E-4,2.2928475E-3,-7.5127594E-3,-1.7683114E-3,4.749273E-4,3.8755336E-3,-2.9631678E-4,4.3067127E-3,-3.1930134E-3,-1.2080169E-2,3.9263405E-3,1.3536726E-3,2.9426144E-4,5.6589986E-3],"split_indices":[18,18,19,4,14,14,12,12,6,1,12,6,6,8,16,0,0,0,0,0,0,0,0,0,0,0,0,0,0,0,0],"split_type":[0,0,0,0,0,0,0,0,0,0,0,0,0,0,0,0,0,0,0,0,0,0,0,0,0,0,0,0,0,0,0],"sum_hessian":[6.477E3,5.586E3,8.91E2,3.963E3,1.623E3,2.04E2,6.87E2,3.848E3,1.15E2,4.7E1,1.576E3,1.67E2,3.7E1,5.21E2,1.66E2,8.71E2,2.977E3,3.7E1,7.8E1,1.6E1,3.1E1,1.493E3,8.3E1,8.9E1,7.8E1,2.9E1,8E0,2.25E2,2.96E2,2.3E1,1.43E2],"tree_param":{"num_deleted":"0","num_feature":"20","num_nodes":"31","size_leaf_vector":"1"}},{"base_weights":[8.549707E-5,-1.1464627E-2,3.112682E-2,-1.9618746E-2,-2.2970887E-3,2.3760427E-2,7.9929955E-2,-2.0411838E-2,4.0265344E-2,-6.4169657E-3,2.7169203E-2,-8.880341E-2,2.645871E-2,8.600623E-2,-1.05351815E-2,-1.0462811E-3,4.3221777E-3,5.577221E-3,-5.8216404E-4,1.2109966E-4,-1.1293403E-3,9.4812765E-4,9.492177E-3,1.623053E-3,-5.706917E-3,1.0953272E-3,5.080314E-3,-8.27562E-3,4.5066047E-3],"categories":[],"categories_nodes":[],"categories_segments":[],"categories_sizes":[],"default_left":[0,0,0,0,0,0,0,0,0,0,0,0,0,0,0,0,0,0,0,0,0,0,0,0,0,0,0,0,0],"id":45,"left_children":[1,3,5,7,9,11,13,15,17,19,21,23,25,27,-1,-1,-1,-1,-1,-1,-1,-1,-1,-1,-1,-1,-1,-1,-1],"loss_changes":[2.3229215E0,3.5293955E-1,6.2974775E-1,1.1950821E-1,2.701624E-1,4.664477E-1,4.2429483E-1,1.3724864E-1,1.2339871E-1,2.7904344E-1,3.6085814E-1,1.143052E-1,5.0850606E-1,2.4944544E-1,0E0,0E0,0E0,0E0,0E0,0E0,0E0,0E0,0E0,0E0,0E0,0E0,0E0,0E0,0E0],"parents":[2147483647,0,0,1,1,2,2,3,3,4,4,5,5,6,6,7,7,8,8,9,9,10,10,11,11,12,12,13,13],"right_children":[2,4,6,8,10,12,14,16,18,20,22,24,26,28,-1,-1,-1,-1,-1,-1,-1,-1,-1,-1,-1,-1,-1,-1,-1],"split_conditions":[3.08311E-1,1.152815E-1,9.5174265E-1,8.506639E-1,8.573991E-1,1.9615242E-1,1E0,8.3492684E-1,6.2940955E-1,4.7452632E-1,9.5174265E-1,8.985712E-3,1E0,1.7037086E-2,-1.05351815E-2,-1.0462811E-3,4.3221777E-3,5.577221E-3,-5.8216404E-4,1.2109966E-4,-1.1293403E-3,9.4812765E-4,9.492177E-3,1.623053E-3,-5.706917E-3,1.0953272E-3,5.080314E-3,-8.27562E-3,4.5066047E-3],"split_indices":[18,19,18,4,9,14,14,5,13,8,19,0,12,13,0,0,0,0,0,0,0,0,0,0,0,0,0,0,0],"split_type":[0,0,0,0,0,0,0,0,0,0,0,0,0,0,0,0,0,0,0,0,0,0,0,0,0,0,0,0,0],"sum_hessian":[6.477E3,4.721E3,1.756E3,2.498E3,2.223E3,1.527E3,2.29E2,2.466E3,3.2E1,1.951E3,2.72E2,3.5E1,1.492E3,2.25E2,4E0,2.455E3,1.1E1,1.3E1,1.9E1,1.262E3,6.89E2,2.6E2,1.2E1,6E0,2.9E1,1.408E3,8.4E1,3E0,2.22E2],"tree_param":{"num_deleted":"0","num_feature":"20","num_nodes":"29","size_leaf_vector":"1"}},{"base_weights":[8.206836E-5,-7.1323947E-3,4.5269426E-2,-1.4583317E-2,8.759108E-3,-1.318671E-3,5.401808E-2,1.996923E-2,-1.5997352E-2,3.509E-3,3.73093E-2,1.8381722E-2,-1.2982026E-1,-2.4191568E-2,5.8220267E-2,1.7128742E-4,7.4598077E-3,-8.551393E-4,1.3262919E-3,1.3292152E-3,-2.4369099E-4,2.9080124E-3,-6.93143E-4,-1.8041123E-4,6.6454927E-3,-7.810769E-3,3.1512782E-3,-4.5158924E-3,2.1572146E-3,2.632086E-3,6.5569505E-3],"categories":[],"categories_nodes":[],"categories_segments":[],"categories_sizes":[],"default_left":[0,0,0,0,0,0,0,0,0,0,0,0,0,0,0,0,0,0,0,0,0,0,0,0,0,0,0,0,0,0,0],"id":46,"left_children":[1,3,5,7,9,11,13,15,17,19,21,23,25,27,29,-1,-1,-1,-1,-1,-1,-1,-1,-1,-1,-1,-1,-1,-1,-1,-1],"loss_changes":[2.1121671E0,6.6166395E-1,3.6363542E-1,1.8617731E-1,2.6727572E-1,3.6186382E-1,2.4822569E-1,3.2016838E-1,1.7226267E-1,2.9183123E-1,2.963618E-1,3.1276956E-1,1.0655919E-1,1.7755082E-1,2.831316E-1,0E0,0E0,0E0,0E0,0E0,0E0,0E0,0E0,0E0,0E0,0E0,0E0,0E0,0E0,0E0,0E0],"parents":[2147483647,0,0,1,1,2,2,3,3,4,4,5,5,6,6,7,7,8,8,9,9,10,10,11,11,12,12,13,13,14,14],"right_children":[2,4,6,8,10,12,14,16,18,20,22,24,26,28,30,-1,-1,-1,-1,-1,-1,-1,-1,-1,-1,-1,-1,-1,-1,-1,-1],"split_conditions":[4.9865952E-1,2.30563E-1,1.2232826E-1,1.7037086E-2,8.573991E-1,9.282032E-1,3.0356604E-1,7.463027E-1,1E0,1.4644662E-1,6.83699E-1,4.8032737E-1,7.2774744E-1,4.8932087E-2,8.0367905E-1,1.7128742E-4,7.4598077E-3,-8.551393E-4,1.3262919E-3,1.3292152E-3,-2.4369099E-4,2.9080124E-3,-6.93143E-4,-1.8041123E-4,6.6454927E-3,-7.810769E-3,3.1512782E-3,-4.5158924E-3,2.1572146E-3,2.632086E-3,6.5569505E-3],"split_indices":[18,19,19,12,9,14,2,9,12,12,1,0,5,0,1,0,0,0,0,0,0,0,0,0,0,0,0,0,0,0,0],"split_type":[0,0,0,0,0,0,0,0,0,0,0,0,0,0,0,0,0,0,0,0,0,0,0,0,0,0,0,0,0,0,0],"sum_hessian":[6.477E3,5.586E3,8.91E2,3.803E3,1.783E3,1.41E2,7.5E2,1.49E2,3.654E3,1.507E3,2.76E2,1.23E2,1.8E1,3.8E1,7.12E2,1.33E2,1.6E1,3.562E3,9.2E1,4.01E2,1.106E3,1.96E2,8E1,1.04E2,1.9E1,1.6E1,2E0,1.9E1,1.9E1,6.63E2,4.9E1],"tree_param":{"num_deleted":"0","num_feature":"20","num_nodes":"31","size_leaf_vector":"1"}},{"base_weights":[8.1059276E-5,-1.22326305E-2,2.4464848E-2,-1.3563789E-2,2.6888346E-2,1.1949199E-2,4.8115514E-2,-3.523846E-3,-1.8680772E-2,-1.8241135E-2,4.4765014E-2,6.80363E-2,5.9212297E-3,6.5715745E-2,1.0524494E-2,1.007306E-3,-5.6013465E-4,-1.1326986E-3,-1.4496962E-5,3.087417E-3,-1.975184E-3,1.2884324E-3,6.5991576E-3,1.5691298E-3,1.0236077E-2,1.0109376E-4,4.2097396E-3,2.4523921E-3,5.2252416E-3,-3.1096006E-3,1.1384356E-3],"categories":[],"categories_nodes":[],"categories_segments":[],"categories_sizes":[],"default_left":[0,0,0,0,0,0,0,0,0,0,0,0,0,0,0,0,0,0,0,0,0,0,0,0,0,0,0,0,0,0,0],"id":47,"left_children":[1,3,5,7,9,11,13,15,17,19,21,23,25,27,29,-1,-1,-1,-1,-1,-1,-1,-1,-1,-1,-1,-1,-1,-1,-1,-1],"loss_changes":[1.9453473E0,2.2455287E-1,6.4293635E-1,2.1385634E-1,1.1537716E-1,4.8070127E-1,4.9683976E-1,2.559593E-1,2.0152181E-1,7.217127E-2,1.655954E-1,6.849582E-1,3.92338E-1,3.2589912E-1,2.15992E-1,0E0,0E0,0E0,0E0,0E0,0E0,0E0,0E0,0E0,0E0,0E0,0E0,0E0,0E0,0E0,0E0],"parents":[2147483647,0,0,1,1,2,2,3,3,4,4,5,5,6,6,7,7,8,8,9,9,10,10,11,11,12,12,13,13,14,14],"right_children":[2,4,6,8,10,12,14,16,18,20,22,24,26,28,30,-1,-1,-1,-1,-1,-1,-1,-1,-1,-1,-1,-1,-1,-1,-1,-1],"split_conditions":[2.600536E-1,8.27442E-1,3.994638E-1,3.8370423E-2,1.9722536E-1,6.69873E-2,9.809623E-1,6.69873E-2,8.419379E-1,3.1676754E-1,1.9571045E-1,6.9089735E-1,7.315922E-1,9.829629E-1,3.9884615E-1,1.007306E-3,-5.6013465E-4,-1.1326986E-3,-1.4496962E-5,3.087417E-3,-1.975184E-3,1.2884324E-3,6.5991576E-3,1.5691298E-3,1.0236077E-2,1.0109376E-4,4.2097396E-3,2.4523921E-3,5.2252416E-3,-3.1096006E-3,1.1384356E-3],"split_indices":[18,4,19,0,9,12,3,12,9,2,18,9,0,12,9,0,0,0,0,0,0,0,0,0,0,0,0,0,0,0,0],"split_type":[0,0,0,0,0,0,0,0,0,0,0,0,0,0,0,0,0,0,0,0,0,0,0,0,0,0,0,0,0,0,0],"sum_hessian":[6.477E3,4.304E3,2.173E3,4.163E3,1.41E2,1.422E3,7.51E2,1.406E3,2.757E3,4E1,1.01E2,1.37E2,1.285E3,5.11E2,2.4E2,3.44E2,1.062E3,2.267E3,4.9E2,8E0,3.2E1,8.4E1,1.7E1,1.09E2,2.8E1,1.225E3,6E1,3.59E2,1.52E2,3.4E1,2.06E2],"tree_param":{"num_deleted":"0","num_feature":"20","num_nodes":"31","size_leaf_vector":"1"}},{"base_weights":[8.165631E-5,